tree
version=v3
num_class=3
num_tree_per_iteration=3
label_index=0
max_feature_idx=29
objective=multiclass num_class:3
feature_names=Column_0 Column_1 Column_2 Column_3 Column_4 Column_5 Column_6 Column_7 Column_8 Column_9 Column_10 Column_11 Column_12 Column_13 Column_14 Column_15 Column_16 Column_17 Column_18 Column_19 Column_20 Column_21 Column_22 Column_23 Column_24 Column_25 Column_26 Column_27 Column_28 Column_29
feature_infos=[6.9809999999999999:28.109999999999999] [9.7100000000000009:39.280000000000001] [43.789999999999999:188.5] [143.5:2501] [0.052630000000000003:0.16339999999999999] [0.019380000000000001:0.34539999999999998] [0:0.4264] [0:0.1913] [0.106:0.29060000000000002] [0.049959999999999997:0.097439999999999999] [0.1115:2.8730000000000002] [0.36020000000000002:4.8849999999999998] [0.75700000000000001:21.98] [7.2279999999999998:542.20000000000005] [0.0017129999999999999:0.031130000000000001] [0.0022520000000000001:0.10059999999999999] [0:0.39600000000000002] [0:0.052789999999999997] [0.0078820000000000001:0.078950000000000006] [0.00089479999999999996:0.029839999999999998] [7.9299999999999997:36.039999999999999] [12.02:49.539999999999999] [50.409999999999997:251.19999999999999] [185.19999999999999:4254] [0.071169999999999997:0.22259999999999999] [0.027289999999999998:1.0580000000000001] [0:1.252] [0:0.29099999999999998] [0.1565:0.66379999999999995] [0.055039999999999999:0.20749999999999999]
tree_sizes=633 635 239 743 743 221 754 754 221 754 755 222 860 858 222 866 864 222 862 860 222 863 861 222 837 836 222 855 853 222 862 860 222 862 862 222 861 861 222 962 960 222 863 863 222 861 859 222 940 939 222 842 841 222 1047 1044 222 964 964 222 1054 1054 222 962 958 222 1042 1038 222 966 966 222 969 965 222 1054 1057 222 1117 1117 222 952 949 222 1128 1129 222 765 767 222 866 864 222 1126 1125 222 929 929 222 954 952 223 751 752 223 829 829 223 1045 1043 223 839 839 223 854 855 223 921 923 223 762 762 223 862 861 223 1022 1023 223 841 841 223 1049 1049 223 941 943 223 820 821 223 1007 1007 223 1028 1027 223 1026 1027 223 860 861 223 773 773 223 1095 1096 223 1197 1197 223 1030 1029 223 1001 1003 223 876 877 223 1022 1022 223 962 961 223 832 833 223 1233 1232 223 929 930 223 1018 1018 223 836 837 223 1203 1203 223 1029 1029 223 998 997 223 1020 1024 223 1008 1007 223 998 999 223 1009 1008 223 1000 1001 223 1019 1019 223 1007 1006 223 1001 1003 223 901 900 223 888 891 223 1006 1005 223 887 885 223 895 898 223 1005 1005 223 818 818 223 1004 1004 223 928 927 223 903 906 223 981 980 223 809 809 223 892 892 223 829 831 223 898 898 223 981 980 223 994 995 223 895 897 223 985 984 223 894 896 223 797 798 223 984 983 223 902 906 223 797 798 223 799 798 223

Tree=0
num_leaves=5
num_cat=0
split_feature=22 27 27 13
split_gain=210.59 29.1581 5.97632 1.68738
threshold=113.15000000000002 0.1358 0.13765000000000002 34.405000000000008
decision_type=2 2 2 2
left_child=1 3 -2 -1
right_child=2 -3 -4 -5
leaf_value=-1.0246864260720887 -0.83828321214125945 -0.85760905874087012 -0.75051204331442434 -0.96899343253924097
leaf_weight=85.320003390312195 10.440000414848326 12.2400004863739 48.600001931190491 7.200000286102294
leaf_count=237 29 34 135 20
internal_value=-0.916291 -1.00137 -0.765548 -1.02058
internal_weight=0 104.76 59.04 92.52
internal_count=455 291 164 257
is_linear=0
shrinkage=1


Tree=1
num_leaves=5
num_cat=0
split_feature=22 27 27 13
split_gain=210.59 29.1581 5.97632 1.68738
threshold=113.15000000000002 0.1358 0.13765000000000002 34.405000000000008
decision_type=2 2 2 2
left_child=1 3 -2 -1
right_child=2 -3 -4 -5
leaf_value=-0.4024299295680569 -0.58883314349888627 -0.56950729689927559 -0.67660431232572138 -0.45812292310090474
leaf_weight=85.320003390312195 10.440000414848326 12.2400004863739 48.600001931190491 7.200000286102294
leaf_count=237 29 34 135 20
internal_value=-0.510826 -0.425746 -0.661568 -0.406533
internal_weight=0 104.76 59.04 92.52
internal_count=455 291 164 257
is_linear=0
shrinkage=1


Tree=2
num_leaves=1
num_cat=0
split_feature=
split_gain=
threshold=
decision_type=
left_child=
right_child=
leaf_value=-34.538776391283193
leaf_weight=
leaf_count=
internal_value=
internal_weight=
internal_count=
is_linear=0
shrinkage=1


Tree=3
num_leaves=6
num_cat=0
split_feature=22 21 27 7 9
split_gain=158.529 15.4277 11.4528 4.72694 0.169858
threshold=105.95000000000002 20.845000000000002 0.1358 0.050715000000000003 0.055905000000000003
decision_type=2 2 2 2 2
left_child=2 -2 4 -3 -1
right_child=1 3 -4 -5 -6
leaf_value=-0.070387364323003229 -0.016623616132026283 0.051685477756470199 0.030883559200290553 0.13972277460242322 -0.099680278013785442
leaf_weight=6.8503157198429099 8.0180885195732099 7.6436947882175437 7.3464977741241446 54.558212071657181 77.164944499731064
leaf_count=20 22 21 20 146 226
internal_value=0 0.112465 -0.0870991 0.129265 -0.0975834
internal_weight=0 70.22 91.3618 62.2019 84.0153
internal_count=455 189 266 167 246
is_linear=0
shrinkage=0.1


Tree=4
num_leaves=6
num_cat=0
split_feature=22 21 27 7 9
split_gain=158.529 15.4277 11.4528 4.72694 0.169858
threshold=105.95000000000002 20.845000000000002 0.1358 0.050715000000000003 0.055905000000000003
decision_type=2 2 2 2 2
left_child=2 -2 4 -3 -1
right_child=1 3 -4 -5 -6
leaf_value=0.070387364323003229 0.016623616132026283 -0.051685477756470199 -0.030883559200290553 -0.13972277460242322 0.099680278013785442
leaf_weight=6.8503157198429099 8.0180885195732099 7.6436947882175437 7.3464977741241446 54.558212071657181 77.164944499731064
leaf_count=20 22 21 20 146 226
internal_value=0 -0.112465 0.0870991 -0.129265 0.0975834
internal_weight=0 70.22 91.3618 62.2019 84.0153
internal_count=455 189 266 167 246
is_linear=0
shrinkage=0.1


Tree=5
num_leaves=1
num_cat=0
split_feature=
split_gain=
threshold=
decision_type=
left_child=
right_child=
leaf_value=0
leaf_weight=
leaf_count=
internal_value=
internal_weight=
internal_count=
is_linear=0
shrinkage=1


Tree=6
num_leaves=6
num_cat=0
split_feature=22 27 23 1 23
split_gain=123.291 19.5845 3.77292 2.00546 3.44719
threshold=113.15000000000002 0.14575000000000002 953.70000000000016 21.330000000000002 631.30000000000007
decision_type=2 2 2 2 2
left_child=1 3 -2 -1 -5
right_child=2 -3 -4 4 -6
leaf_value=-0.094235671642977969 0.043624819062045322 0.070754528462906932 0.12024566606427428 -0.086344412399004547 0.0017937506813786145
leaf_weight=67.978268206119537 8.1519918441772443 8.5598515570163709 52.764415919780731 11.873455107212068 6.6579421758651725
leaf_count=211 22 23 142 37 20
internal_value=0 -0.071641 0.110332 -0.0859766 -0.0544633
internal_weight=0 95.0695 60.9164 86.5097 18.5314
internal_count=455 291 164 268 57
is_linear=0
shrinkage=0.1


Tree=7
num_leaves=6
num_cat=0
split_feature=22 27 23 1 23
split_gain=123.291 19.5845 3.77292 2.00546 3.44719
threshold=113.15000000000002 0.14575000000000002 953.70000000000016 21.330000000000002 631.30000000000007
decision_type=2 2 2 2 2
left_child=1 3 -2 -1 -5
right_child=2 -3 -4 4 -6
leaf_value=0.094235671642977969 -0.043624819062045322 -0.070754528462906932 -0.12024566606427428 0.086344412399004547 -0.0017937506813786145
leaf_weight=67.978268206119537 8.1519918441772443 8.5598515570163709 52.764415919780731 11.873455107212068 6.6579421758651725
leaf_count=211 22 23 142 37 20
internal_value=0 0.071641 -0.110332 0.0859766 0.0544633
internal_weight=0 95.0695 60.9164 86.5097 18.5314
internal_count=455 291 164 268 57
is_linear=0
shrinkage=0.1


Tree=8
num_leaves=1
num_cat=0
split_feature=
split_gain=
threshold=
decision_type=
left_child=
right_child=
leaf_value=0
leaf_weight=
leaf_count=
internal_value=
internal_weight=
internal_count=
is_linear=0
shrinkage=1


Tree=9
num_leaves=6
num_cat=0
split_feature=7 21 20 22 13
split_gain=101.445 10.945 9.73935 1.91901 0.575584
threshold=0.049230000000000003 20.845000000000002 16.765000000000004 106.30000000000003 30.385000000000002
decision_type=2 2 2 2 2
left_child=2 -2 4 -3 -1
right_child=1 3 -4 -5 -6
leaf_value=-0.089554726446561025 -0.021785437408103781 0.050693182677150277 0.033041142653610897 0.11154252637766862 -0.052472105152370531
leaf_weight=67.191052556037903 7.5071442723274222 7.0030969381332389 7.2942210137844077 52.49253386259079 7.016094058752059
leaf_count=225 22 20 20 146 22
internal_value=0 0.0903936 -0.0754726 0.104741 -0.0863335
internal_weight=0 67.0028 81.5014 59.4956 74.2071
internal_count=455 188 267 166 247
is_linear=0
shrinkage=0.1


Tree=10
num_leaves=6
num_cat=0
split_feature=7 21 20 22 13
split_gain=101.445 10.945 9.73935 1.91901 0.575584
threshold=0.049230000000000003 20.845000000000002 16.765000000000004 106.30000000000003 30.385000000000002
decision_type=2 2 2 2 2
left_child=2 -2 4 -3 -1
right_child=1 3 -4 -5 -6
leaf_value=0.089554726446561025 0.021785437408103781 -0.050693182677150277 -0.033041142653610897 -0.11154252637766862 0.052472105152370531
leaf_weight=67.191052556037903 7.5071442723274222 7.0030969381332389 7.2942210137844077 52.49253386259079 7.016094058752059
leaf_count=225 22 20 20 146 22
internal_value=0 -0.0903936 0.0754726 -0.104741 0.0863335
internal_weight=0 67.0028 81.5014 59.4956 74.2071
internal_count=455 188 267 166 247
is_linear=0
shrinkage=0.1


Tree=11
num_leaves=1
num_cat=0
split_feature=
split_gain=
threshold=
decision_type=
left_child=
right_child=
leaf_value=0
leaf_weight=
leaf_count=
internal_value=
internal_weight=
internal_count=
is_linear=0
shrinkage=1


Tree=12
num_leaves=7
num_cat=0
split_feature=7 27 20 21 13 21
split_gain=81.4909 9.24348 8.86392 6.82857 0.636162 0.0289155
threshold=0.049230000000000003 0.14700000000000005 16.875000000000004 24.030000000000005 30.830000000000002 30.080000000000002
decision_type=2 2 2 2 2 2
left_child=2 3 4 -2 5 -1
right_child=1 -3 -4 -5 -6 -7
leaf_value=-0.087982742723042656 -0.062085189283976376 0.1028192809330763 0.034756473208549597 0.072266168002554018 -0.04512597122760225 -0.068248160555988632
leaf_weight=52.166610240936279 6.597466677427291 49.37654709815979 6.9747382700443259 8.2707463204860669 6.2347789406776419 10.379385799169539
leaf_count=191 20 144 19 24 20 37
internal_value=0 0.0820478 -0.0708361 0.0119541 -0.0817584 -0.0850952
internal_weight=0 64.2448 75.7555 14.8682 68.7808 62.546
internal_count=455 188 267 44 248 228
is_linear=0
shrinkage=0.1


Tree=13
num_leaves=7
num_cat=0
split_feature=7 27 20 21 13 21
split_gain=81.4909 9.24348 8.86392 6.82857 0.636162 0.0289155
threshold=0.049230000000000003 0.14700000000000005 16.875000000000004 24.030000000000005 30.830000000000002 30.080000000000002
decision_type=2 2 2 2 2 2
left_child=2 3 4 -2 5 -1
right_child=1 -3 -4 -5 -6 -7
leaf_value=0.087982742723042656 0.062085189283976376 -0.1028192809330763 -0.034756473208549597 -0.072266168002554018 0.04512597122760225 0.068248160555988632
leaf_weight=52.166610240936279 6.597466677427291 49.37654709815979 6.9747382700443259 8.2707463204860669 6.2347789406776419 10.379385799169539
leaf_count=191 20 144 19 24 20 37
internal_value=0 -0.0820478 0.0708361 -0.0119541 0.0817584 0.0850952
internal_weight=0 64.2448 75.7555 14.8682 68.7808 62.546
internal_count=455 188 267 44 248 228
is_linear=0
shrinkage=0.1


Tree=14
num_leaves=1
num_cat=0
split_feature=
split_gain=
threshold=
decision_type=
left_child=
right_child=
leaf_value=0
leaf_weight=
leaf_count=
internal_value=
internal_weight=
internal_count=
is_linear=0
shrinkage=1


Tree=15
num_leaves=7
num_cat=0
split_feature=22 27 1 23 14 28
split_gain=66.4069 14.1829 3.10883 5.14341 0.577615 0.0962218
threshold=115.35000000000001 0.14575000000000002 21.330000000000002 653.45000000000016 0.0044790000000000012 0.22910000000000003
decision_type=2 2 2 2 2 2
left_child=1 2 5 -4 -2 -1
right_child=4 -3 3 -5 -6 -7
leaf_value=-0.061424316631887049 0.057591889973872747 0.057588551088134571 -0.075245192572036074 0.035311726481068097 0.097249157794868701 -0.084822973658009809
leaf_weight=8.2282583564519864 6.6922526359558097 9.6056216955184919 10.382510557770731 6.6890682876110068 41.587882786989212 47.656251788139343
leaf_count=32 20 27 40 21 130 185
internal_value=0 -0.0551624 -0.0702611 -0.03144 0.0922187 -0.0817875
internal_weight=0 82.5617 72.9561 17.0716 48.2801 55.8845
internal_count=455 305 278 61 150 217
is_linear=0
shrinkage=0.1


Tree=16
num_leaves=7
num_cat=0
split_feature=22 27 1 23 14 28
split_gain=66.4069 14.1829 3.10883 5.14341 0.577615 0.0962218
threshold=115.35000000000001 0.14575000000000002 21.330000000000002 653.45000000000016 0.0044790000000000012 0.22910000000000003
decision_type=2 2 2 2 2 2
left_child=1 2 5 -4 -2 -1
right_child=4 -3 3 -5 -6 -7
leaf_value=0.061424316631887049 -0.057591889973872747 -0.057588551088134571 0.075245192572036074 -0.035311726481068097 -0.097249157794868701 0.084822973658009809
leaf_weight=8.2282583564519864 6.6922526359558097 9.6056216955184919 10.382510557770731 6.6890682876110068 41.587882786989212 47.656251788139343
leaf_count=32 20 27 40 21 130 185
internal_value=0 0.0551624 0.0702611 0.03144 -0.0922187 0.0817875
internal_weight=0 82.5617 72.9561 17.0716 48.2801 55.8845
internal_count=455 305 278 61 150 217
is_linear=0
shrinkage=0.1


Tree=17
num_leaves=1
num_cat=0
split_feature=
split_gain=
threshold=
decision_type=
left_child=
right_child=
leaf_value=0
leaf_weight=
leaf_count=
internal_value=
internal_weight=
internal_count=
is_linear=0
shrinkage=1


Tree=18
num_leaves=7
num_cat=0
split_feature=7 23 26 21 21 11
split_gain=56.1169 7.24342 6.62566 1.87793 0.891781 0.542217
threshold=0.049230000000000003 928.50000000000011 0.23415000000000002 23.010000000000002 33.160000000000004 1.9100000000000004
decision_type=2 2 2 2 2 2
left_child=1 4 -2 -4 5 -1
right_child=2 -3 3 -5 -6 -7
leaf_value=-0.081867139430677291 -0.027324351540660069 0.043501224744812078 0.031283618350857717 0.09099271314261563 -0.029582520622401527 -0.04049928890866622
leaf_weight=49.162659645080566 5.8178852051496497 5.4702057242393485 6.9007399827241889 44.084211558103561 5.1151924431323996 5.1091801673173896
leaf_count=210 20 15 21 147 20 22
internal_value=0 -0.0642015 0.0717024 0.0832604 -0.0744027 -0.0783193
internal_weight=0 64.8572 56.8028 50.985 59.387 54.2718
internal_count=455 267 188 168 252 232
is_linear=0
shrinkage=0.1


Tree=19
num_leaves=7
num_cat=0
split_feature=7 23 26 21 21 11
split_gain=56.1169 7.24342 6.62566 1.87793 0.891781 0.542217
threshold=0.049230000000000003 928.50000000000011 0.23415000000000002 23.010000000000002 33.160000000000004 1.9100000000000004
decision_type=2 2 2 2 2 2
left_child=1 4 -2 -4 5 -1
right_child=2 -3 3 -5 -6 -7
leaf_value=0.081867139430677291 0.027324351540660069 -0.043501224744812078 -0.031283618350857717 -0.09099271314261563 0.029582520622401527 0.04049928890866622
leaf_weight=49.162659645080566 5.8178852051496497 5.4702057242393485 6.9007399827241889 44.084211558103561 5.1151924431323996 5.1091801673173896
leaf_count=210 20 15 21 147 20 22
internal_value=0 0.0642015 -0.0717024 -0.0832604 0.0744027 0.0783193
internal_weight=0 64.8572 56.8028 50.985 59.387 54.2718
internal_count=455 267 188 168 252 232
is_linear=0
shrinkage=0.1


Tree=20
num_leaves=1
num_cat=0
split_feature=
split_gain=
threshold=
decision_type=
left_child=
right_child=
leaf_value=0
leaf_weight=
leaf_count=
internal_value=
internal_weight=
internal_count=
is_linear=0
shrinkage=1


Tree=21
num_leaves=7
num_cat=0
split_feature=22 27 1 22 21 14
split_gain=46.4351 11.3667 4.04744 6.0696 0.770027 0.159464
threshold=116.05000000000003 0.15890000000000001 20.800000000000004 101.50000000000001 27.430000000000003 0.0045670000000000007
decision_type=2 2 2 2 2 2
left_child=1 2 4 -4 -1 -2
right_child=5 -3 3 -5 -6 -7
leaf_value=-0.079828644002616578 0.059013395401415029 0.082162788008469267 -0.058410916580409894 0.064915037744265061 -0.028617638882257646 0.088437195382073175
leaf_weight=44.286638781428337 6.2285863459110251 5.8465540409088126 12.392203614115717 5.5983396768569937 4.131813555955886 34.435187339782715
leaf_count=201 21 18 54 17 18 126
internal_value=0 -0.0488244 -0.0607185 -0.0191925 -0.0757999 0.0844859
internal_weight=0 72.2555 66.409 17.9905 48.4185 40.6638
internal_count=455 308 290 71 219 147
is_linear=0
shrinkage=0.1


Tree=22
num_leaves=7
num_cat=0
split_feature=22 27 1 22 21 14
split_gain=46.4351 11.3667 4.04744 6.0696 0.770027 0.159464
threshold=116.05000000000003 0.15890000000000001 20.800000000000004 101.50000000000001 27.430000000000003 0.0045670000000000007
decision_type=2 2 2 2 2 2
left_child=1 2 4 -4 -1 -2
right_child=5 -3 3 -5 -6 -7
leaf_value=0.079828644002616578 -0.059013395401415029 -0.082162788008469267 0.058410916580409894 -0.064915037744265061 0.028617638882257646 -0.088437195382073175
leaf_weight=44.286638781428337 6.2285863459110251 5.8465540409088126 12.392203614115717 5.5983396768569937 4.131813555955886 34.435187339782715
leaf_count=201 21 18 54 17 18 126
internal_value=0 0.0488244 0.0607185 0.0191925 0.0757999 -0.0844859
internal_weight=0 72.2555 66.409 17.9905 48.4185 40.6638
internal_count=455 308 290 71 219 147
is_linear=0
shrinkage=0.1


Tree=23
num_leaves=1
num_cat=0
split_feature=
split_gain=
threshold=
decision_type=
left_child=
right_child=
leaf_value=0
leaf_weight=
leaf_count=
internal_value=
internal_weight=
internal_count=
is_linear=0
shrinkage=1


Tree=24
num_leaves=7
num_cat=0
split_feature=7 23 21 13 23 21
split_gain=39.1696 5.9284 5.2094 2.24098 1.48612 0.460454
threshold=0.049230000000000003 953.70000000000016 20.845000000000002 34.405000000000008 786.30000000000007 33.160000000000004
decision_type=2 2 2 2 2 2
left_child=1 3 -2 5 -4 -1
right_child=2 -3 4 -5 -6 -7
leaf_value=-0.077842040914350291 -0.018768124911920075 0.053015297459764424 0.031053924160798763 0 0.085076332015867784 -0.0349336280486627
leaf_weight=42.408886983990669 6.3385287374258033 4.1520521342754355 7.023754119873046 4.3060628473758689 35.729636013507843 4.0982171893119803
leaf_count=220 22 12 22 17 144 18
internal_value=0 -0.0585888 0.0640748 -0.0680763 0.07662 -0.0744408
internal_weight=0 54.9652 49.0919 50.8132 42.7534 46.5071
internal_count=455 267 188 255 166 238
is_linear=0
shrinkage=0.1


Tree=25
num_leaves=7
num_cat=0
split_feature=7 23 21 13 23 21
split_gain=39.1696 5.9284 5.2094 2.24098 1.48612 0.460454
threshold=0.049230000000000003 953.70000000000016 20.845000000000002 34.405000000000008 786.30000000000007 33.160000000000004
decision_type=2 2 2 2 2 2
left_child=1 3 -2 5 -4 -1
right_child=2 -3 4 -5 -6 -7
leaf_value=0.077842040914350291 0.018768124911920075 -0.053015297459764424 -0.031053924160798763 0 -0.085076332015867784 0.0349336280486627
leaf_weight=42.408886983990669 6.3385287374258033 4.1520521342754355 7.023754119873046 4.3060628473758689 35.729636013507843 4.0982171893119803
leaf_count=220 22 12 22 17 144 18
internal_value=0 0.0585888 -0.0640748 0.0680763 -0.07662 0.0744408
internal_weight=0 54.9652 49.0919 50.8132 42.7534 46.5071
internal_count=455 267 188 255 166 238
is_linear=0
shrinkage=0.1


Tree=26
num_leaves=1
num_cat=0
split_feature=
split_gain=
threshold=
decision_type=
left_child=
right_child=
leaf_value=0
leaf_weight=
leaf_count=
internal_value=
internal_weight=
internal_count=
is_linear=0
shrinkage=1


Tree=27
num_leaves=7
num_cat=0
split_feature=22 21 27 7 15 15
split_gain=32.7831 5.21415 4.05892 1.01402 0.647538 1.6461
threshold=105.95000000000002 20.845000000000002 0.1358 0.050715000000000003 0.012025000000000003 0.0099885000000000026
decision_type=2 2 2 2 2 2
left_child=2 -2 4 -3 5 -1
right_child=1 3 -4 -5 -6 -7
leaf_value=-0.073647012317059488 -0.019240007888343697 0.034322496807018987 0.014404353243823704 0.081249343752587966 -0.077505596771956176 -0.00096063921833563169
leaf_weight=8.6073608398437482 6.849952057003974 6.7814688831567755 6.5965961515903464 32.702716782689095 29.172606155276299 5.2676786035299292
leaf_count=52 22 21 20 146 165 29
internal_value=0 0.0596832 -0.0570282 0.0736552 -0.0682217 -0.0471678
internal_weight=0 46.3341 49.6442 39.4842 43.0476 13.875
internal_count=455 189 266 167 246 81
is_linear=0
shrinkage=0.1


Tree=28
num_leaves=7
num_cat=0
split_feature=22 21 27 7 15 15
split_gain=32.7831 5.21415 4.05892 1.01402 0.647538 1.6461
threshold=105.95000000000002 20.845000000000002 0.1358 0.050715000000000003 0.012025000000000003 0.0099885000000000026
decision_type=2 2 2 2 2 2
left_child=2 -2 4 -3 5 -1
right_child=1 3 -4 -5 -6 -7
leaf_value=0.073647012317059488 0.019240007888343697 -0.034322496807018987 -0.014404353243823704 -0.081249343752587966 0.077505596771956176 0.00096063921833563169
leaf_weight=8.6073608398437482 6.849952057003974 6.7814688831567755 6.5965961515903464 32.702716782689095 29.172606155276299 5.2676786035299292
leaf_count=52 22 21 20 146 165 29
internal_value=0 -0.0596832 0.0570282 -0.0736552 0.0682217 0.0471678
internal_weight=0 46.3341 49.6442 39.4842 43.0476 13.875
internal_count=455 189 266 167 246 81
is_linear=0
shrinkage=0.1


Tree=29
num_leaves=1
num_cat=0
split_feature=
split_gain=
threshold=
decision_type=
left_child=
right_child=
leaf_value=0
leaf_weight=
leaf_count=
internal_value=
internal_weight=
internal_count=
is_linear=0
shrinkage=1


Tree=30
num_leaves=7
num_cat=0
split_feature=22 27 1 23 21 28
split_gain=28.0363 7.40828 3.6665 4.31188 0.997675 0.262601
threshold=116.05000000000003 0.15890000000000001 21.330000000000002 653.45000000000016 27.910000000000004 0.25740000000000002
decision_type=2 2 2 2 2 2
left_child=1 2 4 -4 -1 -2
right_child=5 -3 3 -5 -6 -7
leaf_value=-0.074395009747739257 0.047449641143582084 0.071339685239077799 -0.062798125112242295 0.046949583010289606 -0.016076639275822618 0.080904309691326157
leaf_weight=34.852585330605507 5.5514530241489437 5.0136201977729788 7.0370525419712049 6.8344296663999557 3.8304112255573264 25.510632827877998
leaf_count=206 24 18 40 24 20 123
internal_value=0 -0.0419748 -0.0532039 -0.0081164 -0.0689899 0.0755869
internal_weight=0 57.5681 52.5545 13.8715 38.683 31.0621
internal_count=455 308 290 64 226 147
is_linear=0
shrinkage=0.1


Tree=31
num_leaves=7
num_cat=0
split_feature=22 27 1 23 21 28
split_gain=28.0363 7.40828 3.6665 4.31188 0.997675 0.262601
threshold=116.05000000000003 0.15890000000000001 21.330000000000002 653.45000000000016 27.910000000000004 0.25740000000000002
decision_type=2 2 2 2 2 2
left_child=1 2 4 -4 -1 -2
right_child=5 -3 3 -5 -6 -7
leaf_value=0.074395009747739257 -0.047449641143582084 -0.071339685239077799 0.062798125112242295 -0.046949583010289606 0.016076639275822618 -0.080904309691326157
leaf_weight=34.852585330605507 5.5514530241489437 5.0136201977729788 7.0370525419712049 6.8344296663999557 3.8304112255573264 25.510632827877998
leaf_count=206 24 18 40 24 20 123
internal_value=0 0.0419748 0.0532039 0.0081164 0.0689899 -0.0755869
internal_weight=0 57.5681 52.5545 13.8715 38.683 31.0621
internal_count=455 308 290 64 226 147
is_linear=0
shrinkage=0.1


Tree=32
num_leaves=1
num_cat=0
split_feature=
split_gain=
threshold=
decision_type=
left_child=
right_child=
leaf_value=0
leaf_weight=
leaf_count=
internal_value=
internal_weight=
internal_count=
is_linear=0
shrinkage=1


Tree=33
num_leaves=7
num_cat=0
split_feature=7 23 23 13 27 21
split_gain=24.1238 4.30189 3.84297 2.14654 1.14479 0.535424
threshold=0.049230000000000003 696.05000000000007 953.70000000000016 34.405000000000008 0.14575000000000002 33.160000000000004
decision_type=2 2 2 2 2 2
left_child=2 -2 3 5 -3 -1
right_child=1 4 -4 -5 -6 -7
leaf_value=-0.073525485183411732 -0.03235043878731534 0.03066116151303221 0.040680432562743049 0.0061868749214731237 0.078928199871954971 -0.025232869603059305
leaf_weight=31.796312190592289 4.5141386538743964 7.3793641328811637 3.8078611195087424 3.9201603382825843 26.577995806932449 3.4714666157960883
leaf_count=220 17 30 12 17 141 18
internal_value=0 0.0567195 -0.0520109 -0.0614324 0.0689729 -0.069223
internal_weight=0 38.4715 42.9958 39.1879 33.9574 35.2678
internal_count=455 188 267 255 171 238
is_linear=0
shrinkage=0.1


Tree=34
num_leaves=7
num_cat=0
split_feature=7 23 23 13 27 21
split_gain=24.1238 4.30189 3.84297 2.14654 1.14479 0.535424
threshold=0.049230000000000003 696.05000000000007 953.70000000000016 34.405000000000008 0.14575000000000002 33.160000000000004
decision_type=2 2 2 2 2 2
left_child=2 -2 3 5 -3 -1
right_child=1 4 -4 -5 -6 -7
leaf_value=0.073525485183411732 0.03235043878731534 -0.03066116151303221 -0.040680432562743049 -0.0061868749214731237 -0.078928199871954971 0.025232869603059305
leaf_weight=31.796312190592289 4.5141386538743964 7.3793641328811637 3.8078611195087424 3.9201603382825843 26.577995806932449 3.4714666157960883
leaf_count=220 17 30 12 17 141 18
internal_value=0 -0.0567195 0.0520109 0.0614324 -0.0689729 0.069223
internal_weight=0 38.4715 42.9958 39.1879 33.9574 35.2678
internal_count=455 188 267 255 171 238
is_linear=0
shrinkage=0.1


Tree=35
num_leaves=1
num_cat=0
split_feature=
split_gain=
threshold=
decision_type=
left_child=
right_child=
leaf_value=0
leaf_weight=
leaf_count=
internal_value=
internal_weight=
internal_count=
is_linear=0
shrinkage=1


Tree=36
num_leaves=7
num_cat=0
split_feature=27 23 20 13 27 21
split_gain=20.2539 5.68896 2.86677 2.28257 0.618987 0.211021
threshold=0.13100000000000003 953.70000000000016 15.485000000000001 38.085000000000008 0.14575000000000002 30.080000000000002
decision_type=2 2 2 2 2 2
left_child=1 3 -2 5 -4 -1
right_child=2 -3 4 -5 -6 -7
leaf_value=-0.074340007327412735 -0.010164757642288868 0.048503824160981888 0.028408780001041786 0.01551214008261617 0.075683021879729681 -0.045388708641319803
leaf_weight=26.59602952003479 5.107526794075965 5.1484975516796103 4.3102959692478207 3.2256021797657004 24.233100190758705 6.4044201150536528
leaf_count=208 18 19 17 13 142 38
internal_value=0 -0.047366 0.0568183 -0.0614572 0.0691395 -0.0693299
internal_weight=0 41.3745 33.6509 36.2261 28.5434 33.0004
internal_count=455 278 177 259 159 246
is_linear=0
shrinkage=0.1


Tree=37
num_leaves=7
num_cat=0
split_feature=27 23 20 13 27 21
split_gain=20.2539 5.68896 2.86677 2.28257 0.618987 0.211021
threshold=0.13100000000000003 953.70000000000016 15.485000000000001 38.085000000000008 0.14575000000000002 30.080000000000002
decision_type=2 2 2 2 2 2
left_child=1 3 -2 5 -4 -1
right_child=2 -3 4 -5 -6 -7
leaf_value=0.074340007327412735 0.010164757642288868 -0.048503824160981888 -0.028408780001041786 -0.01551214008261617 -0.075683021879729681 0.045388708641319803
leaf_weight=26.59602952003479 5.107526794075965 5.1484975516796103 4.3102959692478207 3.2256021797657004 24.233100190758705 6.4044201150536528
leaf_count=208 18 19 17 13 142 38
internal_value=0 0.047366 -0.0568183 0.0614572 -0.0691395 0.0693299
internal_weight=0 41.3745 33.6509 36.2261 28.5434 33.0004
internal_count=455 278 177 259 159 246
is_linear=0
shrinkage=0.1


Tree=38
num_leaves=1
num_cat=0
split_feature=
split_gain=
threshold=
decision_type=
left_child=
right_child=
leaf_value=0
leaf_weight=
leaf_count=
internal_value=
internal_weight=
internal_count=
is_linear=0
shrinkage=1


Tree=39
num_leaves=8
num_cat=0
split_feature=7 21 0 21 26 27 11
split_gain=17.0689 3.63513 2.78695 1.19293 1.99978 0.457775 0.294045
threshold=0.049230000000000003 23.010000000000002 14.980000000000002 29.485000000000003 0.19760000000000003 0.13765000000000002 1.9060000000000004
decision_type=2 2 2 2 2 2 2
left_child=2 -2 3 6 -5 -3 -1
right_child=1 5 -4 4 -6 -7 -8
leaf_value=-0.073771655767832928 -0.0066712712813902482 0.033064122565843214 0.018053735782115471 -0.068785444723637679 0.035300778490238501 0.07678512743735863 -0.025961217419551
leaf_weight=21.765287719666965 7.812041535973548 4.193948999047282 5.1914391219615927 3.7119211107492438 3.1903535574674606 20.735565319657326 2.383226364850997
leaf_count=188 33 18 18 26 15 137 20
internal_value=0 0.0515875 -0.0477343 -0.0590987 -0.0196277 0.0701495 -0.0697159
internal_weight=0 32.7416 36.2422 31.0508 6.90227 24.9295 24.1485
internal_count=455 188 267 249 41 155 208
is_linear=0
shrinkage=0.1


Tree=40
num_leaves=8
num_cat=0
split_feature=7 21 0 21 26 27 11
split_gain=17.0689 3.63513 2.78695 1.19293 1.99978 0.457775 0.294045
threshold=0.049230000000000003 23.010000000000002 14.980000000000002 29.485000000000003 0.19760000000000003 0.13765000000000002 1.9060000000000004
decision_type=2 2 2 2 2 2 2
left_child=2 -2 3 6 -5 -3 -1
right_child=1 5 -4 4 -6 -7 -8
leaf_value=0.073771655767832928 0.0066712712813902482 -0.033064122565843214 -0.018053735782115471 0.068785444723637679 -0.035300778490238501 -0.07678512743735863 0.025961217419551
leaf_weight=21.765287719666965 7.812041535973548 4.193948999047282 5.1914391219615927 3.7119211107492438 3.1903535574674606 20.735565319657326 2.383226364850997
leaf_count=188 33 18 18 26 15 137 20
internal_value=0 -0.0515875 0.0477343 0.0590987 0.0196277 -0.0701495 0.0697159
internal_weight=0 32.7416 36.2422 31.0508 6.90227 24.9295 24.1485
internal_count=455 188 267 249 41 155 208
is_linear=0
shrinkage=0.1


Tree=41
num_leaves=1
num_cat=0
split_feature=
split_gain=
threshold=
decision_type=
left_child=
right_child=
leaf_value=0
leaf_weight=
leaf_count=
internal_value=
internal_weight=
internal_count=
is_linear=0
shrinkage=1


Tree=42
num_leaves=7
num_cat=0
split_feature=23 27 21 13 7 21
split_gain=15.0343 5.62764 4.89416 2.13978 0.477157 0.254691
threshold=953.70000000000016 0.13270000000000001 26.320000000000004 38.085000000000008 0.045830000000000003 30.080000000000002
decision_type=2 2 2 2 2 2
left_child=1 3 -3 5 -2 -1
right_child=4 2 -4 -5 -6 -7
leaf_value=-0.072687995881197523 0.025218860408410128 -0.044708174176212388 0.079726830102605797 0.017263216903735591 0.07477177768165201 -0.040803721858892202
leaf_weight=21.583056353032596 3.2014488875865963 5.6363679617643339 6.5901559591293335 3.1249854117631903 17.921041034162045 5.7491973116993895
leaf_count=209 11 23 30 13 131 38
internal_value=0 -0.0347053 0.0217619 -0.0576933 0.0680372 -0.0666896
internal_weight=0 42.6838 12.2265 30.4572 21.1225 27.3323
internal_count=455 313 53 260 142 247
is_linear=0
shrinkage=0.1


Tree=43
num_leaves=7
num_cat=0
split_feature=23 27 21 13 7 21
split_gain=15.0343 5.62764 4.89416 2.13978 0.477157 0.254691
threshold=953.70000000000016 0.13270000000000001 26.320000000000004 38.085000000000008 0.045830000000000003 30.080000000000002
decision_type=2 2 2 2 2 2
left_child=1 3 -3 5 -2 -1
right_child=4 2 -4 -5 -6 -7
leaf_value=0.072687995881197523 -0.025218860408410128 0.044708174176212388 -0.079726830102605797 -0.017263216903735591 -0.07477177768165201 0.040803721858892202
leaf_weight=21.583056353032596 3.2014488875865963 5.6363679617643339 6.5901559591293335 3.1249854117631903 17.921041034162045 5.7491973116993895
leaf_count=209 11 23 30 13 131 38
internal_value=0 0.0347053 -0.0217619 0.0576933 -0.0680372 0.0666896
internal_weight=0 42.6838 12.2265 30.4572 21.1225 27.3323
internal_count=455 313 53 260 142 247
is_linear=0
shrinkage=0.1


Tree=44
num_leaves=1
num_cat=0
split_feature=
split_gain=
threshold=
decision_type=
left_child=
right_child=
leaf_value=0
leaf_weight=
leaf_count=
internal_value=
internal_weight=
internal_count=
is_linear=0
shrinkage=1


Tree=45
num_leaves=7
num_cat=0
split_feature=23 27 1 23 7 13
split_gain=12.6669 4.77112 3.01102 2.66431 0.49685 0.407122
threshold=953.70000000000016 0.15890000000000001 21.330000000000002 653.45000000000016 0.045830000000000003 40.990000000000002
decision_type=2 2 2 2 2 2
left_child=1 2 5 -4 -2 -1
right_child=4 -3 3 -5 -6 -7
leaf_value=-0.068992020326014855 0.022578050991774443 0.06108896819655471 -0.05372862157584133 0.04508613254488969 0.073400601491536779 -0.013851386991829235
leaf_weight=22.234172523021702 3.1279630064964321 4.5054508447647086 4.9097515717148763 5.6504038125276566 15.960406139492987 2.0394720733165732
leaf_count=216 11 25 40 23 131 9
internal_value=0 -0.0329322 -0.0456578 -7.13583e-05 0.0659113 -0.0649188
internal_weight=0 39.3393 34.8338 10.5602 19.0884 24.2736
internal_count=455 313 288 63 142 225
is_linear=0
shrinkage=0.1


Tree=46
num_leaves=7
num_cat=0
split_feature=23 27 1 23 7 13
split_gain=12.6669 4.77112 3.01102 2.66431 0.49685 0.407122
threshold=953.70000000000016 0.15890000000000001 21.330000000000002 653.45000000000016 0.045830000000000003 40.990000000000002
decision_type=2 2 2 2 2 2
left_child=1 2 5 -4 -2 -1
right_child=4 -3 3 -5 -6 -7
leaf_value=0.068992020326014855 -0.022578050991774443 -0.06108896819655471 0.05372862157584133 -0.04508613254488969 -0.073400601491536779 0.013851386991829235
leaf_weight=22.234172523021702 3.1279630064964321 4.5054508447647086 4.9097515717148763 5.6504038125276566 15.960406139492987 2.0394720733165732
leaf_count=216 11 25 40 23 131 9
internal_value=0 0.0329322 0.0456578 7.13583e-05 -0.0659113 0.0649188
internal_weight=0 39.3393 34.8338 10.5602 19.0884 24.2736
internal_count=455 313 288 63 142 225
is_linear=0
shrinkage=0.1


Tree=47
num_leaves=1
num_cat=0
split_feature=
split_gain=
threshold=
decision_type=
left_child=
right_child=
leaf_value=0
leaf_weight=
leaf_count=
internal_value=
internal_weight=
internal_count=
is_linear=0
shrinkage=1


Tree=48
num_leaves=8
num_cat=0
split_feature=26 23 1 12 4 4 21
split_gain=10.7601 5.5709 2.45233 1.87736 0.903704 0.793011 0.638119
threshold=0.20695000000000002 653.45000000000016 15.415000000000001 3.6045000000000003 0.10715000000000001 0.088565000000000019 31.430000000000003
decision_type=2 2 2 2 2 2 2
left_child=3 4 -3 6 -2 -4 -1
right_child=1 2 5 -5 -6 -7 -8
leaf_value=-0.077885928762758683 -0.073536463065124 -0.022688875414258344 0.024287777174527014 0.030368062671931019 0 0.074567218180927181 -0.021949650366252117
leaf_weight=14.720790639519697 4.2303877770900717 3.3780306354165104 4.814740605652335 1.8727115765213955 2.39002675563097 19.068409368395805 3.2042184472084037
leaf_count=172 40 17 26 11 11 155 23
internal_value=0 0.0336956 0.0537998 -0.0587015 -0.0467725 0.0651322 -0.0687912
internal_weight=0 33.8816 27.2612 19.7977 6.62041 23.8831 17.925
internal_count=455 249 198 206 51 181 195
is_linear=0
shrinkage=0.1


Tree=49
num_leaves=8
num_cat=0
split_feature=26 23 1 12 4 4 21
split_gain=10.7601 5.5709 2.45233 1.87736 0.903704 0.793011 0.638119
threshold=0.20695000000000002 653.45000000000016 15.415000000000001 3.6045000000000003 0.10715000000000001 0.088565000000000019 31.430000000000003
decision_type=2 2 2 2 2 2 2
left_child=3 4 -3 6 -2 -4 -1
right_child=1 2 5 -5 -6 -7 -8
leaf_value=0.077885928762758683 0.073536463065124 0.022688875414258344 -0.024287777174527014 -0.030368062671931019 0 -0.074567218180927181 0.021949650366252117
leaf_weight=14.720790639519697 4.2303877770900717 3.3780306354165104 4.814740605652335 1.8727115765213955 2.39002675563097 19.068409368395805 3.2042184472084037
leaf_count=172 40 17 26 11 11 155 23
internal_value=0 -0.0336956 -0.0537998 0.0587015 0.0467725 -0.0651322 0.0687912
internal_weight=0 33.8816 27.2612 19.7977 6.62041 23.8831 17.925
internal_count=455 249 198 206 51 181 195
is_linear=0
shrinkage=0.1


Tree=50
num_leaves=1
num_cat=0
split_feature=
split_gain=
threshold=
decision_type=
left_child=
right_child=
leaf_value=0
leaf_weight=
leaf_count=
internal_value=
internal_weight=
internal_count=
is_linear=0
shrinkage=1


Tree=51
num_leaves=7
num_cat=0
split_feature=23 27 21 13 6 19
split_gain=9.36021 3.69827 3.44129 2.3635 1.2488 0.495747
threshold=953.70000000000016 0.13270000000000001 26.320000000000004 44.525000000000006 0.052965000000000005 0.0015280000000000001
decision_type=2 2 2 2 2 2
left_child=1 3 -3 5 -2 -1
right_child=4 2 -4 -5 -6 -7
leaf_value=0 -0.0076756148082317097 -0.038897551730019436 0.073802431881574371 0.049962619258298868 0.072915921549353377 -0.065678304293479775
leaf_weight=1.4674206897616446 1.9301882088184346 5.0074193924665433 5.344081312417984 1.8310421854257573 13.892137601971625 20.174336776137352
leaf_count=18 7 23 30 7 135 235
internal_value=0 -0.030207 0.0186334 -0.0521435 0.0624872 -0.0616187
internal_weight=0 33.8243 10.3515 23.4728 15.8223 21.6418
internal_count=455 313 53 260 142 253
is_linear=0
shrinkage=0.1


Tree=52
num_leaves=7
num_cat=0
split_feature=23 27 21 13 6 19
split_gain=9.36021 3.69827 3.44129 2.3635 1.2488 0.495747
threshold=953.70000000000016 0.13270000000000001 26.320000000000004 44.525000000000006 0.052965000000000005 0.0015280000000000001
decision_type=2 2 2 2 2 2
left_child=1 3 -3 5 -2 -1
right_child=4 2 -4 -5 -6 -7
leaf_value=0 0.0076756148082317097 0.038897551730019436 -0.073802431881574371 -0.049962619258298868 -0.072915921549353377 0.065678304293479775
leaf_weight=1.4674206897616446 1.9301882088184346 5.0074193924665433 5.344081312417984 1.8310421854257573 13.892137601971625 20.174336776137352
leaf_count=18 7 23 30 7 135 235
internal_value=0 0.030207 -0.0186334 0.0521435 -0.0624872 0.0616187
internal_weight=0 33.8243 10.3515 23.4728 15.8223 21.6418
internal_count=455 313 53 260 142 253
is_linear=0
shrinkage=0.1


Tree=53
num_leaves=1
num_cat=0
split_feature=
split_gain=
threshold=
decision_type=
left_child=
right_child=
leaf_value=0
leaf_weight=
leaf_count=
internal_value=
internal_weight=
internal_count=
is_linear=0
shrinkage=1


Tree=54
num_leaves=9
num_cat=0
split_feature=26 23 10 1 4 21 17 23
split_gain=7.87998 4.18292 1.98966 1.93786 0.738956 0.715233 0.70426 0.0897956
threshold=0.20695000000000002 653.45000000000016 0.52525000000000011 15.535000000000002 0.10715000000000001 31.430000000000003 0.0095635000000000026 846.55000000000007
decision_type=2 2 2 2 2 2 2 2
left_child=2 4 5 -3 -2 7 -5 -1
right_child=1 3 -4 6 -6 -7 -8 -9
leaf_value=-0.068751228085450408 -0.07083585108020897 -0.018742413259636295 0.04359123306586031 0.10012784406210129 0 -0.01611134306693119 0.049395226749977629 -0.11925622186446189
leaf_weight=10.716214232146742 3.5029478371143368 3.215105019509795 1.5910269357264031 4.2879177853465107 2.2538662441074848 2.9239260926842681 15.722183939069508 1.4140446633100499
leaf_count=167 40 18 10 22 11 23 158 6
internal_value=0 0.030966 -0.0549263 0.0500247 -0.0433434 -0.0664289 0.0616447 -0.0772886
internal_weight=0 28.982 16.6452 23.2252 5.75681 15.0542 20.0101 12.1303
internal_count=455 249 206 198 51 196 180 173
is_linear=0
shrinkage=0.1


Tree=55
num_leaves=9
num_cat=0
split_feature=26 23 10 1 4 21 17 23
split_gain=7.87998 4.18292 1.98966 1.93786 0.738956 0.715233 0.70426 0.0897956
threshold=0.20695000000000002 653.45000000000016 0.52525000000000011 15.535000000000002 0.10715000000000001 31.430000000000003 0.0095635000000000026 846.55000000000007
decision_type=2 2 2 2 2 2 2 2
left_child=2 4 5 -3 -2 7 -5 -1
right_child=1 3 -4 6 -6 -7 -8 -9
leaf_value=0.068751228085450408 0.07083585108020897 0.018742413259636295 -0.04359123306586031 -0.10012784406210129 0 0.01611134306693119 -0.049395226749977629 0.11925622186446189
leaf_weight=10.716214232146742 3.5029478371143368 3.215105019509795 1.5910269357264031 4.2879177853465107 2.2538662441074848 2.9239260926842681 15.722183939069508 1.4140446633100499
leaf_count=167 40 18 10 22 11 23 158 6
internal_value=0 -0.030966 0.0549263 -0.0500247 0.0433434 0.0664289 -0.0616447 0.0772886
internal_weight=0 28.982 16.6452 23.2252 5.75681 15.0542 20.0101 12.1303
internal_count=455 249 206 198 51 196 180 173
is_linear=0
shrinkage=0.1


Tree=56
num_leaves=1
num_cat=0
split_feature=
split_gain=
threshold=
decision_type=
left_child=
right_child=
leaf_value=0
leaf_weight=
leaf_count=
internal_value=
internal_weight=
internal_count=
is_linear=0
shrinkage=1


Tree=57
num_leaves=8
num_cat=0
split_feature=23 24 22 19 9 21 29
split_gain=7.06896 3.08755 2.66275 1.9613 1.29641 0.749244 0.308082
threshold=928.50000000000011 0.14075000000000001 87.110000000000014 0.0017030000000000003 0.056440000000000011 29.880000000000006 0.069160000000000013
decision_type=2 2 2 2 2 2 2
left_child=1 4 -3 -2 -1 -4 -6
right_child=3 2 5 -5 6 -7 -8
leaf_value=0.0026186876544143757 -0.019761644838694845 -0.063173441472125044 0.01796017351708484 0.072662459183064826 -0.023981542815516239 0.09483187177336698 -0.068983119672078805
leaf_weight=3.3933688998222413 2.5436392277479163 2.3853056691586954 3.142924714833498 11.950315952301024 2.8495415262877968 2.7258827686309814 13.803754013031719
leaf_count=31 12 37 25 136 41 17 156
internal_value=0 -0.029668 0.0206034 0.0557136 -0.05086 0.0572611 -0.0622522
internal_weight=0 28.3008 8.25411 14.494 20.0467 5.86881 16.6533
internal_count=455 307 79 148 228 42 197
is_linear=0
shrinkage=0.1


Tree=58
num_leaves=8
num_cat=0
split_feature=23 24 22 19 9 21 29
split_gain=7.06896 3.08755 2.66275 1.9613 1.29641 0.749244 0.308082
threshold=928.50000000000011 0.14075000000000001 87.110000000000014 0.0017030000000000003 0.056440000000000011 29.880000000000006 0.069160000000000013
decision_type=2 2 2 2 2 2 2
left_child=1 4 -3 -2 -1 -4 -6
right_child=3 2 5 -5 6 -7 -8
leaf_value=-0.0026186876544143757 0.019761644838694845 0.063173441472125044 -0.01796017351708484 -0.072662459183064826 0.023981542815516239 -0.09483187177336698 0.068983119672078805
leaf_weight=3.3933688998222413 2.5436392277479163 2.3853056691586954 3.142924714833498 11.950315952301024 2.8495415262877968 2.7258827686309814 13.803754013031719
leaf_count=31 12 37 25 136 41 17 156
internal_value=0 0.029668 -0.0206034 -0.0557136 0.05086 -0.0572611 0.0622522
internal_weight=0 28.3008 8.25411 14.494 20.0467 5.86881 16.6533
internal_count=455 307 79 148 228 42 197
is_linear=0
shrinkage=0.1


Tree=59
num_leaves=1
num_cat=0
split_feature=
split_gain=
threshold=
decision_type=
left_child=
right_child=
leaf_value=0
leaf_weight=
leaf_count=
internal_value=
internal_weight=
internal_count=
is_linear=0
shrinkage=1


Tree=60
num_leaves=9
num_cat=0
split_feature=27 10 21 20 13 24 0 23
split_gain=5.91443 2.62052 2.15585 1.76621 1.47169 0.573527 0.619546 0.331944
threshold=0.1358 0.54785000000000006 29.225000000000005 15.870000000000003 18.515000000000004 0.13145000000000004 18.000000000000004 953.70000000000016
decision_type=2 2 2 2 2 2 2 2
left_child=1 2 7 -4 -2 6 -6 -1
right_child=4 -3 3 -5 5 -7 -8 -9
leaf_value=-0.07021373619644404 -0.023683173673550828 0.076599088947283539 -0.041861350412273922 0.058515012156109394 -0.010509945100326649 0.070779484440724072 0.060473412967455245 -0.014377702208376961
leaf_weight=12.919200297445064 2.365408971905711 1.7573673874139775 3.6207065023481837 3.0172544494271278 2.2768416441977015 9.8901867680251581 1.9857940115034578 1.7956255674362172
leaf_count=215 10 12 38 12 13 120 27 8
internal_value=0 -0.033101 -0.0432205 0.00267883 0.0448356 0.0571546 0.0215458 -0.0643548
internal_weight=0 23.1102 21.3528 6.63796 16.5182 14.1528 4.26264 14.7148
internal_count=455 285 273 50 170 160 40 223
is_linear=0
shrinkage=0.1


Tree=61
num_leaves=9
num_cat=0
split_feature=27 10 21 20 13 24 0 23
split_gain=5.91443 2.62052 2.15585 1.76621 1.47169 0.573527 0.619546 0.331944
threshold=0.1358 0.54785000000000006 29.225000000000005 15.870000000000003 18.515000000000004 0.13145000000000004 18.000000000000004 953.70000000000016
decision_type=2 2 2 2 2 2 2 2
left_child=1 2 7 -4 -2 6 -6 -1
right_child=4 -3 3 -5 5 -7 -8 -9
leaf_value=0.07021373619644404 0.023683173673550828 -0.076599088947283539 0.041861350412273922 -0.058515012156109394 0.010509945100326649 -0.070779484440724072 -0.060473412967455245 0.014377702208376961
leaf_weight=12.919200297445064 2.365408971905711 1.7573673874139775 3.6207065023481837 3.0172544494271278 2.2768416441977015 9.8901867680251581 1.9857940115034578 1.7956255674362172
leaf_count=215 10 12 38 12 13 120 27 8
internal_value=0 0.033101 0.0432205 -0.00267883 -0.0448356 -0.0571546 -0.0215458 0.0643548
internal_weight=0 23.1102 21.3528 6.63796 16.5182 14.1528 4.26264 14.7148
internal_count=455 285 273 50 170 160 40 223
is_linear=0
shrinkage=0.1


Tree=62
num_leaves=1
num_cat=0
split_feature=
split_gain=
threshold=
decision_type=
left_child=
right_child=
leaf_value=0
leaf_weight=
leaf_count=
internal_value=
internal_weight=
internal_count=
is_linear=0
shrinkage=1


Tree=63
num_leaves=8
num_cat=0
split_feature=26 23 21 10 4 21 23
split_gain=5.16624 3.1465 2.94371 2.1959 1.51908 0.600145 0.540666
threshold=0.20695000000000002 953.70000000000016 25.830000000000002 0.55485000000000007 0.090335000000000013 31.430000000000003 811.85000000000002
decision_type=2 2 2 2 2 2 2
left_child=3 2 6 5 -4 -1 -2
right_child=1 -3 4 -5 -6 -7 -8
leaf_value=-0.0760199386928333 -0.074471067972245272 0.07047348168368027 -0.02138056407172325 0.066194713911651756 0.070289129767610856 -0.015542186604198389 -0.0077482554536938879
leaf_weight=9.2736088335514051 4.0138315670192259 9.7326742745935899 2.4552615731954575 1.217865653336047 4.942696925252676 2.6670658737421027 2.2837957739830017
leaf_count=176 40 137 18 6 40 24 14
internal_value=0 0.0275789 -0.00275979 -0.0502217 0.0387874 -0.0638139 -0.0527968
internal_weight=0 23.4283 13.6956 13.1585 7.39796 11.9407 6.29763
internal_count=455 249 112 206 58 200 54
is_linear=0
shrinkage=0.1


Tree=64
num_leaves=8
num_cat=0
split_feature=26 23 21 10 4 21 23
split_gain=5.16624 3.1465 2.94371 2.1959 1.51908 0.600145 0.540666
threshold=0.20695000000000002 953.70000000000016 25.830000000000002 0.55485000000000007 0.090335000000000013 31.430000000000003 811.85000000000002
decision_type=2 2 2 2 2 2 2
left_child=3 2 6 5 -4 -1 -2
right_child=1 -3 4 -5 -6 -7 -8
leaf_value=0.0760199386928333 0.074471067972245272 -0.07047348168368027 0.02138056407172325 -0.066194713911651756 -0.070289129767610856 0.015542186604198389 0.0077482554536938879
leaf_weight=9.2736088335514051 4.0138315670192259 9.7326742745935899 2.4552615731954575 1.217865653336047 4.942696925252676 2.6670658737421027 2.2837957739830017
leaf_count=176 40 137 18 6 40 24 14
internal_value=0 -0.0275789 0.00275979 0.0502217 -0.0387874 0.0638139 0.0527968
internal_weight=0 23.4283 13.6956 13.1585 7.39796 11.9407 6.29763
internal_count=455 249 112 206 58 200 54
is_linear=0
shrinkage=0.1


Tree=65
num_leaves=1
num_cat=0
split_feature=
split_gain=
threshold=
decision_type=
left_child=
right_child=
leaf_value=0
leaf_weight=
leaf_count=
internal_value=
internal_weight=
internal_count=
is_linear=0
shrinkage=1


Tree=66
num_leaves=9
num_cat=0
split_feature=7 15 16 21 28 23 18 29
split_gain=4.37294 2.22187 3.50994 1.70816 0.913403 0.796613 0.323391 0.119477
threshold=0.049230000000000003 0.012025000000000003 0.012455000000000003 20.845000000000002 0.32125000000000009 696.05000000000007 0.011995000000000002 0.07776000000000001
decision_type=2 2 2 2 2 2 2 2
left_child=1 2 7 -2 6 -5 -3 -1
right_child=3 4 -4 5 -6 -7 -8 -9
leaf_value=-0.072150550840529362 -0.020094223403643904 -0.0054292016198293483 0.085327333205325068 0 0 0.069377267108300875 -0.075266897182336631 -0.0076673606266863988
leaf_weight=2.2066153939813407 3.4055781513452521 1.0855127088725556 3.2354219537228346 2.0824101343750945 2.0422926470637313 9.5698021799325925 9.2514282055199129 0.80783568695187558
leaf_count=43 22 9 30 11 25 155 144 16
internal_value=0 -0.0328349 0.0142281 0.0391887 -0.0572389 0.0574057 -0.0691243 -0.059533
internal_weight=0 18.6291 6.24987 15.0578 12.3792 11.6522 10.3369 3.01445
internal_count=455 267 89 188 178 166 153 59
is_linear=0
shrinkage=0.1


Tree=67
num_leaves=9
num_cat=0
split_feature=7 15 16 21 28 23 18 29
split_gain=4.37294 2.22187 3.50994 1.70816 0.913403 0.796613 0.323391 0.119477
threshold=0.049230000000000003 0.012025000000000003 0.012455000000000003 20.845000000000002 0.32125000000000009 696.05000000000007 0.011995000000000002 0.07776000000000001
decision_type=2 2 2 2 2 2 2 2
left_child=1 2 7 -2 6 -5 -3 -1
right_child=3 4 -4 5 -6 -7 -8 -9
leaf_value=0.072150550840529362 0.020094223403643904 0.0054292016198293483 -0.085327333205325068 0 0 -0.069377267108300875 0.075266897182336631 0.0076673606266863988
leaf_weight=2.2066153939813407 3.4055781513452521 1.0855127088725556 3.2354219537228346 2.0824101343750945 2.0422926470637313 9.5698021799325925 9.2514282055199129 0.80783568695187558
leaf_count=43 22 9 30 11 25 155 144 16
internal_value=0 0.0328349 -0.0142281 -0.0391887 0.0572389 -0.0574057 0.0691243 0.059533
internal_weight=0 18.6291 6.24987 15.0578 12.3792 11.6522 10.3369 3.01445
internal_count=455 267 89 188 178 166 153 59
is_linear=0
shrinkage=0.1


Tree=68
num_leaves=1
num_cat=0
split_feature=
split_gain=
threshold=
decision_type=
left_child=
right_child=
leaf_value=0
leaf_weight=
leaf_count=
internal_value=
internal_weight=
internal_count=
is_linear=0
shrinkage=1


Tree=69
num_leaves=8
num_cat=0
split_feature=23 24 28 14 20 14 1
split_gain=3.80635 1.89979 1.44809 1.39296 1.33138 0.845823 0.406278
threshold=928.50000000000011 0.14075000000000001 0.19825000000000001 0.0044195000000000007 14.465000000000002 0.0034850000000000007 18.785000000000004
decision_type=2 2 2 2 2 2 2
left_child=1 2 -1 -2 6 -4 -3
right_child=3 4 5 -5 -6 -7 -8
leaf_value=0.050870807415941424 -0.01104623594376224 -0.059983346828738876 0.038549913733044353 0.070146932322626587 0.059588663184213048 -0.05973148125723704 0.0096948663466068438
leaf_weight=1.2075536586344302 2.5541161075234395 1.5966622121632092 0.6785027738660564 7.6259527616202831 3.5684134550392628 13.128283198922871 1.0871224068105219
leaf_count=11 18 32 10 130 33 207 14
internal_value=0 -0.0247541 -0.04408 0.0489923 0.020034 -0.0537062 -0.0295762
internal_weight=0 21.2665 15.0143 10.1801 6.2522 13.8068 2.68378
internal_count=455 307 228 148 79 217 46
is_linear=0
shrinkage=0.1


Tree=70
num_leaves=8
num_cat=0
split_feature=23 24 28 14 20 14 1
split_gain=3.80635 1.89979 1.44809 1.39296 1.33138 0.845823 0.406278
threshold=928.50000000000011 0.14075000000000001 0.19825000000000001 0.0044195000000000007 14.465000000000002 0.0034850000000000007 18.785000000000004
decision_type=2 2 2 2 2 2 2
left_child=1 2 -1 -2 6 -4 -3
right_child=3 4 5 -5 -6 -7 -8
leaf_value=-0.050870807415941424 0.01104623594376224 0.059983346828738876 -0.038549913733044353 -0.070146932322626587 -0.059588663184213048 0.05973148125723704 -0.0096948663466068438
leaf_weight=1.2075536586344302 2.5541161075234395 1.5966622121632092 0.6785027738660564 7.6259527616202831 3.5684134550392628 13.128283198922871 1.0871224068105219
leaf_count=11 18 32 10 130 33 207 14
internal_value=0 0.0247541 0.04408 -0.0489923 -0.020034 0.0537062 0.0295762
internal_weight=0 21.2665 15.0143 10.1801 6.2522 13.8068 2.68378
internal_count=455 307 228 148 79 217 46
is_linear=0
shrinkage=0.1


Tree=71
num_leaves=1
num_cat=0
split_feature=
split_gain=
threshold=
decision_type=
left_child=
right_child=
leaf_value=0
leaf_weight=
leaf_count=
internal_value=
internal_weight=
internal_count=
is_linear=0
shrinkage=1


Tree=72
num_leaves=8
num_cat=0
split_feature=26 23 21 10 4 21 23
split_gain=3.42584 2.23742 2.22426 1.88179 0.987624 0.58518 0.379608
threshold=0.20695000000000002 953.70000000000016 25.830000000000002 0.57435000000000003 0.090335000000000013 31.430000000000003 811.85000000000002
decision_type=2 2 2 2 2 2 2
left_child=3 2 6 5 -4 -1 -2
right_child=1 -3 4 -5 -6 -7 -8
leaf_value=-0.074247607402755267 -0.070261013694912458 0.068487861374132986 -0.012989954188806522 0.066371320024999958 0.064986836804451609 -0.0097538564088120328 -0.0083469863697671186
leaf_weight=7.2442519254982489 3.2155252713710087 7.1160515397787085 2.191634077578783 1.0925553441047657 4.1834516823291779 2.2802705690264702 2.0464134514331818
leaf_count=177 40 137 18 5 40 24 14
internal_value=0 0.0251216 -0.00126126 -0.0454024 0.0370793 -0.0603536 -0.0492003
internal_weight=0 18.7531 11.637 10.6171 6.37509 9.52452 5.26194
internal_count=455 249 112 206 58 201 54
is_linear=0
shrinkage=0.1


Tree=73
num_leaves=8
num_cat=0
split_feature=26 23 21 10 4 21 23
split_gain=3.42584 2.23742 2.22426 1.88179 0.987624 0.58518 0.379608
threshold=0.20695000000000002 953.70000000000016 25.830000000000002 0.57435000000000003 0.090335000000000013 31.430000000000003 811.85000000000002
decision_type=2 2 2 2 2 2 2
left_child=3 2 6 5 -4 -1 -2
right_child=1 -3 4 -5 -6 -7 -8
leaf_value=0.074247607402755267 0.070261013694912458 -0.068487861374132986 0.012989954188806522 -0.066371320024999958 -0.064986836804451609 0.0097538564088120328 0.0083469863697671186
leaf_weight=7.2442519254982489 3.2155252713710087 7.1160515397787085 2.191634077578783 1.0925553441047657 4.1834516823291779 2.2802705690264702 2.0464134514331818
leaf_count=177 40 137 18 5 40 24 14
internal_value=0 -0.0251216 0.00126126 0.0454024 -0.0370793 0.0603536 0.0492003
internal_weight=0 18.7531 11.637 10.6171 6.37509 9.52452 5.26194
internal_count=455 249 112 206 58 201 54
is_linear=0
shrinkage=0.1


Tree=74
num_leaves=1
num_cat=0
split_feature=
split_gain=
threshold=
decision_type=
left_child=
right_child=
leaf_value=0
leaf_weight=
leaf_count=
internal_value=
internal_weight=
internal_count=
is_linear=0
shrinkage=1


Tree=75
num_leaves=9
num_cat=0
split_feature=27 1 23 12 15 18 18 16
split_gain=2.87069 1.79246 2.02067 1.22239 1.1816 0.846928 0.285121 0.0210755
threshold=0.15890000000000001 19.625000000000004 653.45000000000016 4.1240000000000006 0.012025000000000003 0.012245000000000001 0.015665000000000002 0.066270000000000009
decision_type=2 2 2 2 2 2 2 2
left_child=1 3 6 5 -4 -1 -3 -2
right_child=7 2 4 -5 -6 -7 -8 -9
leaf_value=0.0014282818559433561 0.06587584172287568 0 0.10219965793035334 0.041344608433955606 0.011557680236275897 -0.070082255658780887 -0.063135884807116405 0.017909480379529646
leaf_weight=1.7141186371445716 4.8522263038903466 0.90323499962687348 2.1559715494513512 1.1771866399794806 4.648749478161335 8.2404241915792209 2.5752098746597767 0.90672919154167164
leaf_count=18 107 11 12 9 48 185 46 19
internal_value=0 -0.0175261 0.0117356 -0.0451697 0.0438019 -0.0569981 -0.0472466 0.0608564
internal_weight=0 21.4149 10.2832 11.1317 6.80472 9.95454 3.47844 5.75896
internal_count=455 329 117 212 60 203 57 126
is_linear=0
shrinkage=0.1


Tree=76
num_leaves=9
num_cat=0
split_feature=27 1 23 12 15 18 18 16
split_gain=2.87069 1.79246 2.02067 1.22239 1.1816 0.846928 0.285121 0.0210755
threshold=0.15890000000000001 19.625000000000004 653.45000000000016 4.1240000000000006 0.012025000000000003 0.012245000000000001 0.015665000000000002 0.066270000000000009
decision_type=2 2 2 2 2 2 2 2
left_child=1 3 6 5 -4 -1 -3 -2
right_child=7 2 4 -5 -6 -7 -8 -9
leaf_value=-0.0014282818559433561 -0.06587584172287568 0 -0.10219965793035334 -0.041344608433955606 -0.011557680236275897 0.070082255658780887 0.063135884807116405 -0.017909480379529646
leaf_weight=1.7141186371445716 4.8522263038903466 0.90323499962687348 2.1559715494513512 1.1771866399794806 4.648749478161335 8.2404241915792209 2.5752098746597767 0.90672919154167164
leaf_count=18 107 11 12 9 48 185 46 19
internal_value=0 0.0175261 -0.0117356 0.0451697 -0.0438019 0.0569981 0.0472466 -0.0608564
internal_weight=0 21.4149 10.2832 11.1317 6.80472 9.95454 3.47844 5.75896
internal_count=455 329 117 212 60 203 57 126
is_linear=0
shrinkage=0.1


Tree=77
num_leaves=1
num_cat=0
split_feature=
split_gain=
threshold=
decision_type=
left_child=
right_child=
leaf_value=0
leaf_weight=
leaf_count=
internal_value=
internal_weight=
internal_count=
is_linear=0
shrinkage=1


Tree=78
num_leaves=10
num_cat=0
split_feature=27 15 16 2 23 21 7 29 11
split_gain=2.62254 1.5052 2.12495 1.18 1.10649 0.478112 0.28375 0.133477 0.00270402
threshold=0.1358 0.012025000000000003 0.012455000000000003 71.850000000000009 928.50000000000011 19.485000000000003 0.051855000000000005 0.078380000000000019 2.1585000000000005
decision_type=2 2 2 2 2 2 2 2 2
left_child=1 2 7 -2 8 -5 -7 -1 -3
right_child=3 4 -4 5 -6 6 -8 -9 -10
leaf_value=-0.066237673871932357 -0.057867083698699799 -0.068934523174841333 0.071143774926917105 0 0.0095209201915397966 0.0083785852269891038 0.069372829029945071 0 -0.022465706424131815
leaf_weight=1.6339233238250046 0.87362921237945457 7.06694398075342 2.949091300368309 1.4336169138550738 2.2440150640904895 1.3707455247640608 6.3147703092545271 0.58227526955306519 0.93905964307487
leaf_count=45 4 167 31 11 16 9 146 14 12
internal_value=0 -0.0260365 0.0161586 0.0391714 -0.0481591 0.0505833 0.0602508 -0.0527038 -0.065383
internal_weight=0 15.4153 5.16529 9.99276 10.25 9.11913 7.68552 2.2162 8.006
internal_count=455 285 90 170 195 166 155 59 179
is_linear=0
shrinkage=0.1


Tree=79
num_leaves=10
num_cat=0
split_feature=27 15 16 2 23 21 7 29 11
split_gain=2.62254 1.5052 2.12495 1.18 1.10649 0.478112 0.28375 0.133477 0.00270402
threshold=0.1358 0.012025000000000003 0.012455000000000003 71.850000000000009 928.50000000000011 19.485000000000003 0.051855000000000005 0.078380000000000019 2.1585000000000005
decision_type=2 2 2 2 2 2 2 2 2
left_child=1 2 7 -2 8 -5 -7 -1 -3
right_child=3 4 -4 5 -6 6 -8 -9 -10
leaf_value=0.066237673871932357 0.057867083698699799 0.068934523174841333 -0.071143774926917105 0 -0.0095209201915397966 -0.0083785852269891038 -0.069372829029945071 0 0.022465706424131815
leaf_weight=1.6339233238250046 0.87362921237945457 7.06694398075342 2.949091300368309 1.4336169138550738 2.2440150640904895 1.3707455247640608 6.3147703092545271 0.58227526955306519 0.93905964307487
leaf_count=45 4 167 31 11 16 9 146 14 12
internal_value=0 0.0260365 -0.0161586 -0.0391714 0.0481591 -0.0505833 -0.0602508 0.0527038 0.065383
internal_weight=0 15.4153 5.16529 9.99276 10.25 9.11913 7.68552 2.2162 8.006
internal_count=455 285 90 170 195 166 155 59 179
is_linear=0
shrinkage=0.1


Tree=80
num_leaves=1
num_cat=0
split_feature=
split_gain=
threshold=
decision_type=
left_child=
right_child=
leaf_value=0
leaf_weight=
leaf_count=
internal_value=
internal_weight=
internal_count=
is_linear=0
shrinkage=1


Tree=81
num_leaves=8
num_cat=0
split_feature=26 23 21 10 19 21 24
split_gain=2.25685 1.66525 1.44571 1.34154 0.805177 0.500285 0.36053
threshold=0.20695000000000002 953.70000000000016 25.830000000000002 0.57435000000000003 0.0033385000000000003 31.430000000000003 0.13750000000000004
decision_type=2 2 2 2 2 2 2
left_child=3 2 6 5 -4 -1 -2
right_child=1 -3 4 -5 -6 -7 -8
leaf_value=-0.072113114657631802 -0.066448707914400315 0.066568018411140545 0.073357757464051557 0.051772938671230055 0 -0.006649956796914068 -0.0017271019230748832
leaf_weight=5.488526005297901 2.6083717858418805 5.3324499856680623 2.3494412805885077 1.0811973474919794 3.1264662519097328 1.9670526646077631 1.7346621789038179
leaf_count=177 34 137 18 5 40 24 20
internal_value=0 0.0226486 -0.00105759 -0.0410102 0.0315999 -0.0567727 -0.0440133
internal_weight=0 15.1514 9.81894 8.53678 5.47591 7.45558 4.34303
internal_count=455 249 112 206 58 201 54
is_linear=0
shrinkage=0.1


Tree=82
num_leaves=8
num_cat=0
split_feature=26 23 21 10 19 21 24
split_gain=2.25685 1.66525 1.44571 1.34154 0.805177 0.500285 0.36053
threshold=0.20695000000000002 953.70000000000016 25.830000000000002 0.57435000000000003 0.0033385000000000003 31.430000000000003 0.13750000000000004
decision_type=2 2 2 2 2 2 2
left_child=3 2 6 5 -4 -1 -2
right_child=1 -3 4 -5 -6 -7 -8
leaf_value=0.072113114657631802 0.066448707914400315 -0.066568018411140545 -0.073357757464051557 -0.051772938671230055 0 0.006649956796914068 0.0017271019230748832
leaf_weight=5.488526005297901 2.6083717858418805 5.3324499856680623 2.3494412805885077 1.0811973474919794 3.1264662519097328 1.9670526646077631 1.7346621789038179
leaf_count=177 34 137 18 5 40 24 20
internal_value=0 -0.0226486 0.00105759 0.0410102 -0.0315999 0.0567727 0.0440133
internal_weight=0 15.1514 9.81894 8.53678 5.47591 7.45558 4.34303
internal_count=455 249 112 206 58 201 54
is_linear=0
shrinkage=0.1


Tree=83
num_leaves=1
num_cat=0
split_feature=
split_gain=
threshold=
decision_type=
left_child=
right_child=
leaf_value=0
leaf_weight=
leaf_count=
internal_value=
internal_weight=
internal_count=
is_linear=0
shrinkage=1


Tree=84
num_leaves=10
num_cat=0
split_feature=7 15 16 21 28 10 18 29 26
split_gain=2.03932 1.36011 1.49016 0.982897 0.744774 0.500179 0.322508 0.135414 0.0414275
threshold=0.049230000000000003 0.012025000000000003 0.012455000000000003 20.845000000000002 0.32125000000000009 0.23540000000000003 0.011760000000000001 0.078700000000000006 0.26765000000000005
decision_type=2 2 2 2 2 2 2 2 2
left_child=1 2 7 -2 6 -5 -3 -1 -7
right_child=3 4 -4 5 -6 8 -8 -9 -10
leaf_value=-0.062201734719052118 -0.017381750453965315 0 0.06110729345306827 0 0.0053856998256949298 0.018053608465488067 -0.071981244351586843 0 0.070872896439804822
leaf_weight=1.3849124936386967 2.3055129852145892 0.65333313122391512 2.7999746296554804 1.146425127983093 1.5698827942833302 0.88166920095682133 5.9804178234189749 0.52961082942783821 4.906587403267622
leaf_count=46 22 7 30 11 25 16 146 13 139
internal_value=0 -0.0260157 0.0148145 0.034925 -0.0504643 0.0537163 -0.0649154 -0.0475352 0.0653691
internal_weight=0 12.9181 4.7145 9.24019 8.20363 6.93468 6.63375 1.91452 5.78826
internal_count=455 267 89 188 178 166 153 59 155
is_linear=0
shrinkage=0.1


Tree=85
num_leaves=10
num_cat=0
split_feature=7 15 16 21 28 10 18 29 26
split_gain=2.03932 1.36011 1.49016 0.982897 0.744774 0.500179 0.322508 0.135414 0.0414275
threshold=0.049230000000000003 0.012025000000000003 0.012455000000000003 20.845000000000002 0.32125000000000009 0.23540000000000003 0.011760000000000001 0.078700000000000006 0.26765000000000005
decision_type=2 2 2 2 2 2 2 2 2
left_child=1 2 7 -2 6 -5 -3 -1 -7
right_child=3 4 -4 5 -6 8 -8 -9 -10
leaf_value=0.062201734719052118 0.017381750453965315 0 -0.06110729345306827 0 -0.0053856998256949298 -0.018053608465488067 0.071981244351586843 0 -0.070872896439804822
leaf_weight=1.3849124936386967 2.3055129852145892 0.65333313122391512 2.7999746296554804 1.146425127983093 1.5698827942833302 0.88166920095682133 5.9804178234189749 0.52961082942783821 4.906587403267622
leaf_count=46 22 7 30 11 25 16 146 13 139
internal_value=0 0.0260157 -0.0148145 -0.034925 0.0504643 -0.0537163 0.0649154 0.0475352 -0.0653691
internal_weight=0 12.9181 4.7145 9.24019 8.20363 6.93468 6.63375 1.91452 5.78826
internal_count=455 267 89 188 178 166 153 59 155
is_linear=0
shrinkage=0.1


Tree=86
num_leaves=1
num_cat=0
split_feature=
split_gain=
threshold=
decision_type=
left_child=
right_child=
leaf_value=0
leaf_weight=
leaf_count=
internal_value=
internal_weight=
internal_count=
is_linear=0
shrinkage=1


Tree=87
num_leaves=6
num_cat=0
split_feature=22 27 5 27 7
split_gain=1.68757 1.43781 1.1766 0.683289 0.0801615
threshold=85.085000000000022 0.14575000000000002 0.060450000000000011 0.12230000000000001 0.059615000000000008
decision_type=2 2 2 2 2
left_child=-1 2 -2 -4 -3
right_child=1 4 3 -5 -6
leaf_value=-0.063873490980089154 0.04667178697044129 0.008367946921709524 -0.044535134435418622 0.0070385705745990394 0.063856942196353114
leaf_weight=3.3083104044199017 2.9917015703395036 0.81138527579605479 5.7433761823922378 3.9255583751946688 4.0488460455089808
leaf_count=123 39 12 110 34 137
internal_value=0 0.012025 -0.00518548 -0.0228648 0.0572665
internal_weight=0 17.5209 12.6606 9.66893 4.86023
internal_count=455 332 183 144 149
is_linear=0
shrinkage=0.1


Tree=88
num_leaves=6
num_cat=0
split_feature=22 27 5 27 7
split_gain=1.68757 1.43781 1.1766 0.683289 0.0801615
threshold=85.085000000000022 0.14575000000000002 0.060450000000000011 0.12230000000000001 0.059615000000000008
decision_type=2 2 2 2 2
left_child=-1 2 -2 -4 -3
right_child=1 4 3 -5 -6
leaf_value=0.063873490980089154 -0.04667178697044129 -0.008367946921709524 0.044535134435418622 -0.0070385705745990394 -0.063856942196353114
leaf_weight=3.3083104044199017 2.9917015703395036 0.81138527579605479 5.7433761823922378 3.9255583751946688 4.0488460455089808
leaf_count=123 39 12 110 34 137
internal_value=0 -0.012025 0.00518548 0.0228648 -0.0572665
internal_weight=0 17.5209 12.6606 9.66893 4.86023
internal_count=455 332 183 144 149
is_linear=0
shrinkage=0.1


Tree=89
num_leaves=1
num_cat=0
split_feature=
split_gain=
threshold=
decision_type=
left_child=
right_child=
leaf_value=0
leaf_weight=
leaf_count=
internal_value=
internal_weight=
internal_count=
is_linear=0
shrinkage=1


Tree=90
num_leaves=7
num_cat=0
split_feature=22 21 4 22 28 29
split_gain=1.51849 0.984557 1.04984 1.06109 0.602087 0.421911
threshold=121.75000000000001 20.205000000000002 0.090335000000000013 85.085000000000022 0.29870000000000002 0.06088000000000001
decision_type=2 2 2 2 2 2
left_child=1 -1 4 -4 -3 -2
right_child=5 2 3 -5 -6 -7
leaf_value=-0.064774222316782537 -0.013393554919570795 -0.055593670471797474 -0.054167334460049066 0.040208252725013043 0.011472508185014687 0.064549912128874606
leaf_weight=2.9518126351758864 0.52963901497423549 3.8728436604142171 1.2093692077323792 6.1092189885675907 1.5776187498122451 3.6082279104739428
leaf_count=80 5 85 43 90 23 129
internal_value=0 -0.0146252 -0.0014411 0.022257 -0.0346928 0.0521105
internal_weight=0 15.7209 12.7691 7.31859 5.45046 4.13787
internal_count=455 321 241 133 108 134
is_linear=0
shrinkage=0.1


Tree=91
num_leaves=7
num_cat=0
split_feature=22 21 4 22 28 29
split_gain=1.51849 0.984557 1.04984 1.06109 0.602087 0.421911
threshold=121.75000000000001 20.205000000000002 0.090335000000000013 85.085000000000022 0.29870000000000002 0.06088000000000001
decision_type=2 2 2 2 2 2
left_child=1 -1 4 -4 -3 -2
right_child=5 2 3 -5 -6 -7
leaf_value=0.064774222316782537 0.013393554919570795 0.055593670471797474 0.054167334460049066 -0.040208252725013043 -0.011472508185014687 -0.064549912128874606
leaf_weight=2.9518126351758864 0.52963901497423549 3.8728436604142171 1.2093692077323792 6.1092189885675907 1.5776187498122451 3.6082279104739428
leaf_count=80 5 85 43 90 23 129
internal_value=0 0.0146252 0.0014411 -0.022257 0.0346928 -0.0521105
internal_weight=0 15.7209 12.7691 7.31859 5.45046 4.13787
internal_count=455 321 241 133 108 134
is_linear=0
shrinkage=0.1


Tree=92
num_leaves=1
num_cat=0
split_feature=
split_gain=
threshold=
decision_type=
left_child=
right_child=
leaf_value=0
leaf_weight=
leaf_count=
internal_value=
internal_weight=
internal_count=
is_linear=0
shrinkage=1


Tree=93
num_leaves=10
num_cat=0
split_feature=23 24 18 10 27 5 1 26 9
split_gain=1.33013 1.23198 0.861942 1.05993 0.700779 0.476891 0.265241 0.252992 0.0656573
threshold=928.50000000000011 0.10055000000000001 0.017900000000000003 0.23540000000000003 0.14460000000000003 0.066915000000000016 15.005000000000001 0.36630000000000007 0.056680000000000001
decision_type=2 2 2 2 2 2 2 2 2
left_child=2 -2 3 7 8 -5 -3 -1 -4
right_child=1 6 4 5 -6 -7 -8 -9 -10
leaf_value=-0.059162104655290253 -0.063875605736885416 0 -0.0034290026834693371 0.071038445475567868 0.014928641922374006 0 0.067214653438196298 0 -0.066029857282464924
leaf_weight=1.8463035132735988 0.73001264408230682 0.58803700655698765 0.55581249482929695 1.9639082280918954 1.2299340125173328 2.190975776873529 4.2718146657571197 0.9298549685627221 4.3982379902154207
leaf_count=56 3 5 13 19 17 39 140 9 154
internal_value=0 0.0394814 -0.0179207 0.00508363 -0.0446219 0.0375829 0.0588945 -0.0394528 -0.0613523
internal_weight=0 5.58986 13.115 6.93104 6.18398 4.15488 4.85985 2.77616 4.95405
internal_count=455 148 307 123 184 58 145 65 167
is_linear=0
shrinkage=0.1


Tree=94
num_leaves=10
num_cat=0
split_feature=23 24 18 10 27 5 1 26 9
split_gain=1.33013 1.23198 0.861942 1.05993 0.700779 0.476891 0.265241 0.252992 0.0656573
threshold=928.50000000000011 0.10055000000000001 0.017900000000000003 0.23540000000000003 0.14460000000000003 0.066915000000000016 15.005000000000001 0.36630000000000007 0.056680000000000001
decision_type=2 2 2 2 2 2 2 2 2
left_child=2 -2 3 7 8 -5 -3 -1 -4
right_child=1 6 4 5 -6 -7 -8 -9 -10
leaf_value=0.059162104655290253 0.063875605736885416 0 0.0034290026834693371 -0.071038445475567868 -0.014928641922374006 0 -0.067214653438196298 0 0.066029857282464924
leaf_weight=1.8463035132735988 0.73001264408230682 0.58803700655698765 0.55581249482929695 1.9639082280918954 1.2299340125173328 2.190975776873529 4.2718146657571197 0.9298549685627221 4.3982379902154207
leaf_count=56 3 5 13 19 17 39 140 9 154
internal_value=0 -0.0394814 0.0179207 -0.00508363 0.0446219 -0.0375829 -0.0588945 0.0394528 0.0613523
internal_weight=0 5.58986 13.115 6.93104 6.18398 4.15488 4.85985 2.77616 4.95405
internal_count=455 148 307 123 184 58 145 65 167
is_linear=0
shrinkage=0.1


Tree=95
num_leaves=1
num_cat=0
split_feature=
split_gain=
threshold=
decision_type=
left_child=
right_child=
leaf_value=0
leaf_weight=
leaf_count=
internal_value=
internal_weight=
internal_count=
is_linear=0
shrinkage=1


Tree=96
num_leaves=8
num_cat=0
split_feature=7 15 1 27 21 23 28
split_gain=1.19924 0.966336 1.42423 0.739109 0.669529 0.40635 0.186291
threshold=0.049230000000000003 0.016435000000000002 18.055000000000003 0.065675000000000025 20.845000000000002 696.05000000000007 0.32040000000000007
decision_type=2 2 2 2 2 2 2
left_child=1 2 -1 -4 -2 -6 -3
right_child=4 6 3 -5 5 -7 -8
leaf_value=-0.062273127640245632 -0.015690399172673616 -0.06824980278839847 -0.022211689896217957 0.061453144132933103 0 0.064742615333700446 0
leaf_weight=2.0336742256768066 1.8673124909400929 3.3759902636520565 1.223966493271291 3.0521310037001967 1.3450186420232055 3.8792506577447057 0.7521800948306917
leaf_count=85 22 99 37 28 11 155 18
internal_value=0 -0.021989 0.00140206 0.0353489 0.0306475 0.0490215 -0.0584646
internal_weight=0 10.4379 6.30977 4.2761 7.09158 5.22427 4.12817
internal_count=455 267 150 65 188 166 117
is_linear=0
shrinkage=0.1


Tree=97
num_leaves=8
num_cat=0
split_feature=7 15 1 27 21 23 28
split_gain=1.19924 0.966336 1.42423 0.739109 0.669529 0.40635 0.186291
threshold=0.049230000000000003 0.016435000000000002 18.055000000000003 0.065675000000000025 20.845000000000002 696.05000000000007 0.32040000000000007
decision_type=2 2 2 2 2 2 2
left_child=1 2 -1 -4 -2 -6 -3
right_child=4 6 3 -5 5 -7 -8
leaf_value=0.062273127640245632 0.015690399172673616 0.06824980278839847 0.022211689896217957 -0.061453144132933103 0 -0.064742615333700446 0
leaf_weight=2.0336742256768066 1.8673124909400929 3.3759902636520565 1.223966493271291 3.0521310037001967 1.3450186420232055 3.8792506577447057 0.7521800948306917
leaf_count=85 22 99 37 28 11 155 18
internal_value=0 0.021989 -0.00140206 -0.0353489 -0.0306475 -0.0490215 0.0584646
internal_weight=0 10.4379 6.30977 4.2761 7.09158 5.22427 4.12817
internal_count=455 267 150 65 188 166 117
is_linear=0
shrinkage=0.1


Tree=98
num_leaves=1
num_cat=0
split_feature=
split_gain=
threshold=
decision_type=
left_child=
right_child=
leaf_value=0
leaf_weight=
leaf_count=
internal_value=
internal_weight=
internal_count=
is_linear=0
shrinkage=1


Tree=99
num_leaves=8
num_cat=0
split_feature=26 23 21 10 7 21 23
split_gain=1.05034 0.943936 0.881956 0.84565 0.41628 0.341211 0.234924
threshold=0.20695000000000002 953.70000000000016 25.830000000000002 0.57435000000000003 0.045295000000000009 31.430000000000003 811.85000000000002
decision_type=2 2 2 2 2 2 2
left_child=3 2 6 5 -4 -1 -2
right_child=1 -3 4 -5 -6 -7 -8
leaf_value=-0.066656873158625896 -0.061450703659162415 0.062665129661247029 -0.00049869999877378049 0.043067250008945873 0.056623138839588721 -0.0017207263348014879 0
leaf_weight=3.5865822606720057 1.8549927072599515 3.0930436998605728 2.0468206843361259 0.90552267432212818 2.1617502309381962 1.4574360344558952 1.344422500580549
leaf_count=177 40 137 26 5 32 24 14
internal_value=0 0.0180679 -0.000396115 -0.0337654 0.0278116 -0.0505822 -0.0398959
internal_weight=0 10.501 7.40799 5.94954 4.20857 5.04402 3.19942
internal_count=455 249 112 206 58 201 54
is_linear=0
shrinkage=0.1


Tree=100
num_leaves=8
num_cat=0
split_feature=26 23 21 10 7 21 23
split_gain=1.05034 0.943936 0.881956 0.84565 0.41628 0.341211 0.234924
threshold=0.20695000000000002 953.70000000000016 25.830000000000002 0.57435000000000003 0.045295000000000009 31.430000000000003 811.85000000000002
decision_type=2 2 2 2 2 2 2
left_child=3 2 6 5 -4 -1 -2
right_child=1 -3 4 -5 -6 -7 -8
leaf_value=0.066656873158625896 0.061450703659162415 -0.062665129661247029 0.00049869999877378049 -0.043067250008945873 -0.056623138839588721 0.0017207263348014879 0
leaf_weight=3.5865822606720057 1.8549927072599515 3.0930436998605728 2.0468206843361259 0.90552267432212818 2.1617502309381962 1.4574360344558952 1.344422500580549
leaf_count=177 40 137 26 5 32 24 14
internal_value=0 -0.0180679 0.000396115 0.0337654 -0.0278116 0.0505822 0.0398959
internal_weight=0 10.501 7.40799 5.94954 4.20857 5.04402 3.19942
internal_count=455 249 112 206 58 201 54
is_linear=0
shrinkage=0.1


Tree=101
num_leaves=1
num_cat=0
split_feature=
split_gain=
threshold=
decision_type=
left_child=
right_child=
leaf_value=0
leaf_weight=
leaf_count=
internal_value=
internal_weight=
internal_count=
is_linear=0
shrinkage=1


Tree=102
num_leaves=6
num_cat=0
split_feature=22 27 5 7 4
split_gain=0.938639 0.819298 0.726224 0.43938 0.154614
threshold=85.085000000000022 0.14575000000000002 0.060450000000000011 0.049230000000000003 0.090040000000000023
decision_type=2 2 2 2 2
left_child=-1 2 -2 -4 -3
right_child=1 4 3 -5 -6
leaf_value=-0.059534953487581199 0.038330009002349612 0 -0.04000300845582163 0.0060800726414070401 0.060959470037023233
leaf_weight=2.1265018279664227 2.6341424798592907 0.40512478817254249 4.5034037795849144 3.0255170511081815 2.6866883784532547
leaf_count=123 39 13 106 38 136
internal_value=0 0.00921142 -0.00385081 -0.0205124 0.0528112
internal_weight=0 13.2549 10.1631 7.52892 3.09181
internal_count=455 332 183 144 149
is_linear=0
shrinkage=0.1


Tree=103
num_leaves=6
num_cat=0
split_feature=22 27 5 7 4
split_gain=0.938639 0.819298 0.726224 0.43938 0.154614
threshold=85.085000000000022 0.14575000000000002 0.060450000000000011 0.049230000000000003 0.090040000000000023
decision_type=2 2 2 2 2
left_child=-1 2 -2 -4 -3
right_child=1 4 3 -5 -6
leaf_value=0.059534953487581199 -0.038330009002349612 0 0.04000300845582163 -0.0060800726414070401 -0.060959470037023233
leaf_weight=2.1265018279664227 2.6341424798592907 0.40512478817254249 4.5034037795849144 3.0255170511081815 2.6866883784532547
leaf_count=123 39 13 106 38 136
internal_value=0 -0.00921142 0.00385081 0.0205124 -0.0528112
internal_weight=0 13.2549 10.1631 7.52892 3.09181
internal_count=455 332 183 144 149
is_linear=0
shrinkage=0.1


Tree=104
num_leaves=1
num_cat=0
split_feature=
split_gain=
threshold=
decision_type=
left_child=
right_child=
leaf_value=0
leaf_weight=
leaf_count=
internal_value=
internal_weight=
internal_count=
is_linear=0
shrinkage=1


Tree=105
num_leaves=7
num_cat=0
split_feature=13 1 24 22 24 27
split_gain=0.841668 0.751401 0.591839 0.411124 0.369158 0.1422
threshold=18.515000000000004 15.535000000000002 0.10905000000000002 101.50000000000001 0.16230000000000003 0.11370000000000001
decision_type=2 2 2 2 2 2
left_child=4 5 -3 -4 -1 -2
right_child=1 2 3 -5 -6 -7
leaf_value=-0.060653402818107799 -0.057028462169798226 -0.019268827043592233 0 0.052562019124840223 0.012107927425779288 0
leaf_weight=2.6102411653846516 1.2574646663852029 1.9833719036541859 2.1881916825659573 5.2554784547537565 0.56908940244466055 0.86719254497438658
leaf_count=117 39 36 70 173 8 12
internal_value=0 0.0118753 0.0246577 0.0378681 -0.0447244 -0.0377799
internal_weight=0 11.5517 9.42704 7.44367 3.17933 2.12466
internal_count=455 330 279 243 125 51
is_linear=0
shrinkage=0.1


Tree=106
num_leaves=7
num_cat=0
split_feature=13 1 24 22 24 27
split_gain=0.841668 0.751401 0.591839 0.411124 0.369158 0.1422
threshold=18.515000000000004 15.535000000000002 0.10905000000000002 101.50000000000001 0.16230000000000003 0.11370000000000001
decision_type=2 2 2 2 2 2
left_child=4 5 -3 -4 -1 -2
right_child=1 2 3 -5 -6 -7
leaf_value=0.060653402818107799 0.057028462169798226 0.019268827043592233 0 -0.052562019124840223 -0.012107927425779288 0
leaf_weight=2.6102411653846516 1.2574646663852029 1.9833719036541859 2.1881916825659573 5.2554784547537565 0.56908940244466055 0.86719254497438658
leaf_count=117 39 36 70 173 8 12
internal_value=0 -0.0118753 -0.0246577 -0.0378681 0.0447244 0.0377799
internal_weight=0 11.5517 9.42704 7.44367 3.17933 2.12466
internal_count=455 330 279 243 125 51
is_linear=0
shrinkage=0.1


Tree=107
num_leaves=1
num_cat=0
split_feature=
split_gain=
threshold=
decision_type=
left_child=
right_child=
leaf_value=0
leaf_weight=
leaf_count=
internal_value=
internal_weight=
internal_count=
is_linear=0
shrinkage=1


Tree=108
num_leaves=9
num_cat=0
split_feature=23 19 18 10 27 4 26 9
split_gain=0.766516 0.766475 0.630873 0.72001 0.431924 0.25492 0.162077 0.0362343
threshold=928.50000000000011 0.0016740000000000004 0.017900000000000003 0.23540000000000003 0.14460000000000003 0.090335000000000013 0.36630000000000007 0.056680000000000001
decision_type=2 2 2 2 2 2 2 2
left_child=2 -2 3 6 7 -5 -1 -4
right_child=1 -3 4 5 -6 -7 -8 -9
leaf_value=-0.055032491513415098 -0.025665275182525472 0.063216160305600497 -3.845819726387352e-05 0 0.0081937253280641199 0.051918230988064008 0 -0.063291169257174817
leaf_weight=1.3808931116946026 1.1103119729086768 2.8001597397960722 0.42647480126470361 1.2823299313895407 0.90804813150316466 2.2986701703630388 0.74120544921606768 3.1055924003012478
leaf_count=56 9 139 13 24 17 34 9 154
internal_value=0 0.0355261 -0.0154798 0.00509035 -0.0431368 0.0332732 -0.0369309 -0.0587446
internal_weight=0 3.91047 10.1432 5.7031 4.44012 3.581 2.1221 3.53207
internal_count=455 148 307 123 184 58 65 167
is_linear=0
shrinkage=0.1


Tree=109
num_leaves=9
num_cat=0
split_feature=23 19 18 10 27 4 26 9
split_gain=0.766516 0.766475 0.630873 0.72001 0.431924 0.25492 0.162077 0.0362343
threshold=928.50000000000011 0.0016740000000000004 0.017900000000000003 0.23540000000000003 0.14460000000000003 0.090335000000000013 0.36630000000000007 0.056680000000000001
decision_type=2 2 2 2 2 2 2 2
left_child=2 -2 3 6 7 -5 -1 -4
right_child=1 -3 4 5 -6 -7 -8 -9
leaf_value=0.055032491513415098 0.025665275182525472 -0.063216160305600497 3.845819726387352e-05 0 -0.0081937253280641199 -0.051918230988064008 0 0.063291169257174817
leaf_weight=1.3808931116946026 1.1103119729086768 2.8001597397960722 0.42647480126470361 1.2823299313895407 0.90804813150316466 2.2986701703630388 0.74120544921606768 3.1055924003012478
leaf_count=56 9 139 13 24 17 34 9 154
internal_value=0 -0.0355261 0.0154798 -0.00509035 0.0431368 -0.0332732 0.0369309 0.0587446
internal_weight=0 3.91047 10.1432 5.7031 4.44012 3.581 2.1221 3.53207
internal_count=455 148 307 123 184 58 65 167
is_linear=0
shrinkage=0.1


Tree=110
num_leaves=1
num_cat=0
split_feature=
split_gain=
threshold=
decision_type=
left_child=
right_child=
leaf_value=0
leaf_weight=
leaf_count=
internal_value=
internal_weight=
internal_count=
is_linear=0
shrinkage=1


Tree=111
num_leaves=7
num_cat=0
split_feature=26 13 23 21 19 25
split_gain=0.663446 0.689121 0.64603 0.604461 0.346356 0.189937
threshold=0.20695000000000002 40.300000000000004 953.70000000000016 25.830000000000002 0.0033385000000000003 0.35250000000000009
decision_type=2 2 2 2 2 2
left_child=1 -1 3 5 -5 -2
right_child=2 -3 -4 4 -6 -7
leaf_value=-0.060498452483824419 -0.057608406842297691 0.010592135012150606 0.05957285429872923 0.055183290890468542 -0.00065076285730520083 0
leaf_weight=2.8428344489075252 1.4945249357260748 2.0097544025629759 2.2240985874086618 1.6990554984658959 1.8648134255781768 1.1091080298647282
leaf_count=193 39 13 137 18 40 15
internal_value=0 -0.0298225 0.015792 0 0.0248288 -0.036447
internal_weight=0 4.85259 8.3916 6.1675 3.56387 2.60363
internal_count=455 206 249 112 58 54
is_linear=0
shrinkage=0.1


Tree=112
num_leaves=7
num_cat=0
split_feature=26 13 23 21 19 25
split_gain=0.663446 0.689121 0.64603 0.604461 0.346356 0.189937
threshold=0.20695000000000002 40.300000000000004 953.70000000000016 25.830000000000002 0.0033385000000000003 0.35250000000000009
decision_type=2 2 2 2 2 2
left_child=1 -1 3 5 -5 -2
right_child=2 -3 -4 4 -6 -7
leaf_value=0.060498452483824419 0.057608406842297691 -0.010592135012150606 -0.05957285429872923 -0.055183290890468542 0.00065076285730520083 0
leaf_weight=2.8428344489075252 1.4945249357260748 2.0097544025629759 2.2240985874086618 1.6990554984658959 1.8648134255781768 1.1091080298647282
leaf_count=193 39 13 137 18 40 15
internal_value=0 0.0298225 -0.015792 0 -0.0248288 0.036447
internal_weight=0 4.85259 8.3916 6.1675 3.56387 2.60363
internal_count=455 206 249 112 58 54
is_linear=0
shrinkage=0.1


Tree=113
num_leaves=1
num_cat=0
split_feature=
split_gain=
threshold=
decision_type=
left_child=
right_child=
leaf_value=0
leaf_weight=
leaf_count=
internal_value=
internal_weight=
internal_count=
is_linear=0
shrinkage=1


Tree=114
num_leaves=7
num_cat=0
split_feature=22 10 21 29 1 14
split_gain=0.588643 0.597036 0.752515 0.756249 0.376234 0.0609595
threshold=85.085000000000022 0.54785000000000006 29.225000000000005 0.097300000000000011 24.850000000000005 0.0046285000000000007
decision_type=2 2 2 2 2 2
left_child=-1 2 3 -2 -4 -3
right_child=1 5 4 -5 -6 -7
leaf_value=-0.055538712113101962 -0.050175043672073844 0 0.050010745695493741 0.027666557141288736 -0.0094804909538645649 0.065074000633717322
leaf_weight=1.5171352848410613 3.9134704913012666 0.25350213702767987 2.6563444021157925 1.4594048974104223 1.2115545286796985 1.4823980568908153
leaf_count=123 145 12 45 28 22 80
internal_value=0 0.00727271 -0.00222629 -0.0270029 0.0293679 0.0580105
internal_weight=0 10.9767 9.24077 5.37288 3.8679 1.7359
internal_count=455 332 240 173 67 92
is_linear=0
shrinkage=0.1


Tree=115
num_leaves=7
num_cat=0
split_feature=22 10 21 29 1 14
split_gain=0.588643 0.597036 0.752515 0.756249 0.376234 0.0609595
threshold=85.085000000000022 0.54785000000000006 29.225000000000005 0.097300000000000011 24.850000000000005 0.0046285000000000007
decision_type=2 2 2 2 2 2
left_child=-1 2 3 -2 -4 -3
right_child=1 5 4 -5 -6 -7
leaf_value=0.055538712113101962 0.050175043672073844 0 -0.050010745695493741 -0.027666557141288736 0.0094804909538645649 -0.065074000633717322
leaf_weight=1.5171352848410613 3.9134704913012666 0.25350213702767987 2.6563444021157925 1.4594048974104223 1.2115545286796985 1.4823980568908153
leaf_count=123 145 12 45 28 22 80
internal_value=0 -0.00727271 0.00222629 0.0270029 -0.0293679 -0.0580105
internal_weight=0 10.9767 9.24077 5.37288 3.8679 1.7359
internal_count=455 332 240 173 67 92
is_linear=0
shrinkage=0.1


Tree=116
num_leaves=1
num_cat=0
split_feature=
split_gain=
threshold=
decision_type=
left_child=
right_child=
leaf_value=0
leaf_weight=
leaf_count=
internal_value=
internal_weight=
internal_count=
is_linear=0
shrinkage=1


Tree=117
num_leaves=8
num_cat=0
split_feature=13 27 5 23 24 5 24
split_gain=0.52239 0.541452 0.784745 0.430683 0.267454 0.259002 0.168621
threshold=18.515000000000004 0.1358 0.060450000000000011 953.70000000000016 0.16230000000000003 0.056105000000000009 0.13075000000000001
decision_type=2 2 2 2 2 2 2
left_child=4 2 5 -4 -1 -2 -3
right_child=1 6 3 -5 -6 -7 -8
leaf_value=-0.056941812304678541 0 0 -0.054218070014441948 0.006482640025478572 0.0085863640775795374 0.068057237288354139 0.056498767525543947
leaf_weight=1.9353831633925449 0.9849249310791478 0.87018874799832735 2.7564564982894808 1.4289131592959163 0.4704198446124791 1.1401245607994495 2.2448090384714305
leaf_count=117 33 37 107 19 8 11 123
internal_value=0 0.00980563 -0.005841 -0.0318636 -0.0406155 0.0394428 0.0429595
internal_weight=0 9.42542 6.31042 4.18537 2.4058 2.12505 3.115
internal_count=455 330 170 126 125 44 160
is_linear=0
shrinkage=0.1


Tree=118
num_leaves=8
num_cat=0
split_feature=13 27 5 23 24 5 24
split_gain=0.52239 0.541452 0.784745 0.430683 0.267454 0.259002 0.168621
threshold=18.515000000000004 0.1358 0.060450000000000011 953.70000000000016 0.16230000000000003 0.056105000000000009 0.13075000000000001
decision_type=2 2 2 2 2 2 2
left_child=4 2 5 -4 -1 -2 -3
right_child=1 6 3 -5 -6 -7 -8
leaf_value=0.056941812304678541 0 0 0.054218070014441948 -0.006482640025478572 -0.0085863640775795374 -0.068057237288354139 -0.056498767525543947
leaf_weight=1.9353831633925449 0.9849249310791478 0.87018874799832735 2.7564564982894808 1.4289131592959163 0.4704198446124791 1.1401245607994495 2.2448090384714305
leaf_count=117 33 37 107 19 8 11 123
internal_value=0 -0.00980563 0.005841 0.0318636 0.0406155 -0.0394428 -0.0429595
internal_weight=0 9.42542 6.31042 4.18537 2.4058 2.12505 3.115
internal_count=455 330 170 126 125 44 160
is_linear=0
shrinkage=0.1


Tree=119
num_leaves=1
num_cat=0
split_feature=
split_gain=
threshold=
decision_type=
left_child=
right_child=
leaf_value=0
leaf_weight=
leaf_count=
internal_value=
internal_weight=
internal_count=
is_linear=0
shrinkage=1


Tree=120
num_leaves=6
num_cat=0
split_feature=22 1 4 20 10
split_gain=0.465719 0.469956 0.367929 0.453986 0.245963
threshold=85.085000000000022 15.005000000000001 0.090040000000000023 15.770000000000001 0.23540000000000003
decision_type=2 2 2 2 2
left_child=-1 -2 3 -3 -4
right_child=1 2 4 -5 -6
leaf_value=-0.052953677975186686 -0.042281736235915975 -0.052660806390239227 -0.00088304535024080538 0.016963122550663651 0.04533090359305772
leaf_weight=1.2785670822486288 1.3379042844753701 1.2021002250257864 1.0163533268496392 2.411993914283812 3.9361405340023339
leaf_count=123 38 51 25 39 179
internal_value=0 0.00711243 0.016756 -0.00512 0.0342399
internal_weight=0 9.90449 8.56659 3.61409 4.95249
internal_count=455 332 294 90 204
is_linear=0
shrinkage=0.1


Tree=121
num_leaves=6
num_cat=0
split_feature=22 1 4 20 10
split_gain=0.465719 0.469956 0.367929 0.453986 0.245963
threshold=85.085000000000022 15.005000000000001 0.090040000000000023 15.770000000000001 0.23540000000000003
decision_type=2 2 2 2 2
left_child=-1 -2 3 -3 -4
right_child=1 2 4 -5 -6
leaf_value=0.052953677975186686 0.042281736235915975 0.052660806390239227 0.00088304535024080538 -0.016963122550663651 -0.04533090359305772
leaf_weight=1.2785670822486288 1.3379042844753701 1.2021002250257864 1.0163533268496392 2.411993914283812 3.9361405340023339
leaf_count=123 38 51 25 39 179
internal_value=0 -0.00711243 -0.016756 0.00512 -0.0342399
internal_weight=0 9.90449 8.56659 3.61409 4.95249
internal_count=455 332 294 90 204
is_linear=0
shrinkage=0.1


Tree=122
num_leaves=1
num_cat=0
split_feature=
split_gain=
threshold=
decision_type=
left_child=
right_child=
leaf_value=0
leaf_weight=
leaf_count=
internal_value=
internal_weight=
internal_count=
is_linear=0
shrinkage=1


Tree=123
num_leaves=7
num_cat=0
split_feature=22 21 4 18 19 8
split_gain=0.432898 0.373508 0.411413 0.355484 0.343154 0.244487
threshold=121.75000000000001 20.205000000000002 0.090335000000000013 0.017390000000000003 0.0013580000000000003 0.14230000000000001
decision_type=2 2 2 2 2 2
left_child=1 -1 4 -4 -3 -2
right_child=5 2 3 -5 -6 -7
leaf_value=-0.054682021679941573 -0.019521193398339937 0.031504871537590205 0.042560792364491166 -0.010154596465253272 -0.042815905779469914 0.056064292641247064
leaf_weight=1.3710948976222406 0.22405841946601945 0.47632376803085241 2.515324936946854 1.8477292999159542 2.6908296153414994 1.597425040323287
leaf_count=80 1 7 45 88 101 133
internal_value=0 -0.0102847 0 0.018578 -0.0274612 0.0408083
internal_weight=0 8.9013 7.53021 4.36305 3.16715 1.82148
internal_count=455 321 241 133 108 134
is_linear=0
shrinkage=0.1


Tree=124
num_leaves=7
num_cat=0
split_feature=22 21 4 18 19 8
split_gain=0.432898 0.373508 0.411413 0.355484 0.343154 0.244487
threshold=121.75000000000001 20.205000000000002 0.090335000000000013 0.017390000000000003 0.0013580000000000003 0.14230000000000001
decision_type=2 2 2 2 2 2
left_child=1 -1 4 -4 -3 -2
right_child=5 2 3 -5 -6 -7
leaf_value=0.054682021679941573 0.019521193398339937 -0.031504871537590205 -0.042560792364491166 0.010154596465253272 0.042815905779469914 -0.056064292641247064
leaf_weight=1.3710948976222406 0.22405841946601945 0.47632376803085241 2.515324936946854 1.8477292999159542 2.6908296153414994 1.597425040323287
leaf_count=80 1 7 45 88 101 133
internal_value=0 0.0102847 0 -0.018578 0.0274612 -0.0408083
internal_weight=0 8.9013 7.53021 4.36305 3.16715 1.82148
internal_count=455 321 241 133 108 134
is_linear=0
shrinkage=0.1


Tree=125
num_leaves=1
num_cat=0
split_feature=
split_gain=
threshold=
decision_type=
left_child=
right_child=
leaf_value=0
leaf_weight=
leaf_count=
internal_value=
internal_weight=
internal_count=
is_linear=0
shrinkage=1


Tree=126
num_leaves=9
num_cat=0
split_feature=23 24 18 10 6 5 26 1
split_gain=0.38244 0.548409 0.329325 0.352184 0.320387 0.176491 0.113432 0.0875081
threshold=928.50000000000011 0.10055000000000001 0.017900000000000003 0.23540000000000003 0.10640000000000001 0.066915000000000016 0.36630000000000007 15.005000000000001
decision_type=2 2 2 2 2 2 2 2
left_child=2 -2 3 6 -4 -5 -1 -3
right_child=1 7 4 5 -6 -7 -8 -9
leaf_value=-0.048905550210698319 -0.042882862655970334 0 -0.057791437711210772 0.047877887333199386 0.001162862704551765 0 0 0.059676847228868894
leaf_weight=0.95256125670857705 0.51967102661728892 0.29768211394548449 2.1078436917159711 1.4171143947169187 0.99474927876144636 1.4202398513443766 0.57121019065380096 1.9355523157864807
leaf_count=56 3 5 162 19 22 39 9 140
internal_value=0 0.0294994 -0.012796 0.00305181 -0.0369359 0.0252858 -0.0306781 0.0525927
internal_weight=0 2.75291 7.46372 4.36113 3.10259 2.83735 1.52377 2.23323
internal_count=455 148 307 123 184 58 65 145
is_linear=0
shrinkage=0.1


Tree=127
num_leaves=9
num_cat=0
split_feature=23 24 18 10 6 5 26 1
split_gain=0.38244 0.548409 0.329325 0.352184 0.320387 0.176491 0.113432 0.0875081
threshold=928.50000000000011 0.10055000000000001 0.017900000000000003 0.23540000000000003 0.10640000000000001 0.066915000000000016 0.36630000000000007 15.005000000000001
decision_type=2 2 2 2 2 2 2 2
left_child=2 -2 3 6 -4 -5 -1 -3
right_child=1 7 4 5 -6 -7 -8 -9
leaf_value=0.048905550210698319 0.042882862655970334 0 0.057791437711210772 -0.047877887333199386 -0.001162862704551765 0 0 -0.059676847228868894
leaf_weight=0.95256125670857705 0.51967102661728892 0.29768211394548449 2.1078436917159711 1.4171143947169187 0.99474927876144636 1.4202398513443766 0.57121019065380096 1.9355523157864807
leaf_count=56 3 5 162 19 22 39 9 140
internal_value=0 -0.0294994 0.012796 -0.00305181 0.0369359 -0.0252858 0.0306781 -0.0525927
internal_weight=0 2.75291 7.46372 4.36113 3.10259 2.83735 1.52377 2.23323
internal_count=455 148 307 123 184 58 65 145
is_linear=0
shrinkage=0.1


Tree=128
num_leaves=1
num_cat=0
split_feature=
split_gain=
threshold=
decision_type=
left_child=
right_child=
leaf_value=0
leaf_weight=
leaf_count=
internal_value=
internal_weight=
internal_count=
is_linear=0
shrinkage=1


Tree=129
num_leaves=7
num_cat=0
split_feature=26 13 23 21 27 23
split_gain=0.355554 0.421641 0.363584 0.328466 0.236691 0.13274
threshold=0.20695000000000002 40.300000000000004 953.70000000000016 25.830000000000002 0.13270000000000001 811.85000000000002
decision_type=2 2 2 2 2 2
left_child=1 -1 3 5 -5 -2
right_child=2 -3 -4 4 -6 -7
leaf_value=-0.056446096327138234 -0.051510118243498763 0.0064655091590602818 0.054066782044924912 -0.00090718510686127766 0.049300911195916675 0
leaf_weight=1.8650028847623619 1.0631390605121849 1.6194260800257323 1.4257125887088475 1.5534683405421676 1.291843134909868 0.85133654810488213
leaf_count=193 40 13 137 26 32 14
internal_value=0 -0.0257293 0.0132229 0 0.0203455 -0.0309395
internal_weight=0 3.48443 6.1855 4.75979 2.84531 1.91448
internal_count=455 206 249 112 58 54
is_linear=0
shrinkage=0.1


Tree=130
num_leaves=7
num_cat=0
split_feature=26 13 23 21 27 23
split_gain=0.355554 0.421641 0.363584 0.328466 0.236691 0.13274
threshold=0.20695000000000002 40.300000000000004 953.70000000000016 25.830000000000002 0.13270000000000001 811.85000000000002
decision_type=2 2 2 2 2 2
left_child=1 -1 3 5 -5 -2
right_child=2 -3 -4 4 -6 -7
leaf_value=0.056446096327138234 0.051510118243498763 -0.0064655091590602818 -0.054066782044924912 0.00090718510686127766 -0.049300911195916675 0
leaf_weight=1.8650028847623619 1.0631390605121849 1.6194260800257323 1.4257125887088475 1.5534683405421676 1.291843134909868 0.85133654810488213
leaf_count=193 40 13 137 26 32 14
internal_value=0 0.0257293 -0.0132229 0 -0.0203455 0.0309395
internal_weight=0 3.48443 6.1855 4.75979 2.84531 1.91448
internal_count=455 206 249 112 58 54
is_linear=0
shrinkage=0.1


Tree=131
num_leaves=1
num_cat=0
split_feature=
split_gain=
threshold=
decision_type=
left_child=
right_child=
leaf_value=0
leaf_weight=
leaf_count=
internal_value=
internal_weight=
internal_count=
is_linear=0
shrinkage=1


Tree=132
num_leaves=9
num_cat=0
split_feature=7 15 1 21 10 12 28 17
split_gain=0.308737 0.526707 0.532385 0.265708 0.226222 0.204265 0.120849 0.0669428
threshold=0.049230000000000003 0.016435000000000002 18.055000000000003 20.845000000000002 0.23665000000000003 1.7025000000000003 0.32125000000000009 0.018655000000000001
decision_type=2 2 2 2 2 2 2 2
left_child=1 2 -1 -2 -4 -5 -3 -7
right_child=3 6 4 5 -6 7 -8 -9
leaf_value=-0.048733031798608398 -0.014322792999799942 -0.060703241398409019 -0.0073873407240541908 -0.0091094745384244624 0.048614892525389919 0.058720171556858353 0 0
leaf_weight=0.89766111539211157 0.94745313748717341 1.8727144980803134 0.59248150046914849 0.33191996859386597 1.9666179877240209 1.7808887322898956 0.35901440051384259 0.39909548684954632
leaf_count=85 22 102 25 7 40 127 15 32
internal_value=0 -0.0151233 0.00710553 0.0218095 0.0324293 0.0391768 -0.0514188 0.0508781
internal_weight=0 5.68849 3.45676 3.45936 2.5591 2.5119 2.23173 2.17998
internal_count=455 267 150 188 65 166 117 159
is_linear=0
shrinkage=0.1


Tree=133
num_leaves=9
num_cat=0
split_feature=7 15 1 21 10 12 28 17
split_gain=0.308737 0.526707 0.532385 0.265708 0.226222 0.204265 0.120849 0.0669428
threshold=0.049230000000000003 0.016435000000000002 18.055000000000003 20.845000000000002 0.23665000000000003 1.7025000000000003 0.32125000000000009 0.018655000000000001
decision_type=2 2 2 2 2 2 2 2
left_child=1 2 -1 -2 -4 -5 -3 -7
right_child=3 6 4 5 -6 7 -8 -9
leaf_value=0.048733031798608398 0.014322792999799942 0.060703241398409019 0.0073873407240541908 0.0091094745384244624 -0.048614892525389919 -0.058720171556858353 0 0
leaf_weight=0.89766111539211157 0.94745313748717341 1.8727144980803134 0.59248150046914849 0.33191996859386597 1.9666179877240209 1.7808887322898956 0.35901440051384259 0.39909548684954632
leaf_count=85 22 102 25 7 40 127 15 32
internal_value=0 0.0151233 -0.00710553 -0.0218095 -0.0324293 -0.0391768 0.0514188 -0.0508781
internal_weight=0 5.68849 3.45676 3.45936 2.5591 2.5119 2.23173 2.17998
internal_count=455 267 150 188 65 166 117 159
is_linear=0
shrinkage=0.1


Tree=134
num_leaves=1
num_cat=0
split_feature=
split_gain=
threshold=
decision_type=
left_child=
right_child=
leaf_value=0
leaf_weight=
leaf_count=
internal_value=
internal_weight=
internal_count=
is_linear=0
shrinkage=1


Tree=135
num_leaves=8
num_cat=0
split_feature=13 24 5 22 24 7 23
split_gain=0.280527 0.313997 0.249705 0.348467 0.154353 0.120016 0.109368
threshold=18.515000000000004 0.14075000000000001 0.060450000000000011 121.75000000000001 0.16230000000000003 0.027185000000000004 653.45000000000016
decision_type=2 2 2 2 2 2 2
left_child=4 2 5 -4 -1 -2 -3
right_child=1 6 3 -5 -6 -7 -8
leaf_value=-0.050937366475801084 0 0 -0.036118649062433422 0.024836106818023174 0.00019187589391186992 0.050966380659133018 0.053017392408046829
leaf_weight=1.3148030326701698 0.68988823518156983 0.20639887405559409 2.8773253931431104 0.98794619715772558 0.36880475422367442 0.75462854607030749 1.4392008606810121
leaf_count=117 34 20 104 65 8 7 100
internal_value=0 0.00765268 -0.00286268 -0.0176236 -0.0355971 0.027894 0.0436338
internal_weight=0 6.95539 5.30979 3.86527 1.68361 1.44452 1.6456
internal_count=455 330 210 169 125 41 120
is_linear=0
shrinkage=0.1


Tree=136
num_leaves=8
num_cat=0
split_feature=13 24 5 22 24 7 23
split_gain=0.280527 0.313997 0.249705 0.348467 0.154353 0.120016 0.109368
threshold=18.515000000000004 0.14075000000000001 0.060450000000000011 121.75000000000001 0.16230000000000003 0.027185000000000004 653.45000000000016
decision_type=2 2 2 2 2 2 2
left_child=4 2 5 -4 -1 -2 -3
right_child=1 6 3 -5 -6 -7 -8
leaf_value=0.050937366475801084 0 0 0.036118649062433422 -0.024836106818023174 -0.00019187589391186992 -0.050966380659133018 -0.053017392408046829
leaf_weight=1.3148030326701698 0.68988823518156983 0.20639887405559409 2.8773253931431104 0.98794619715772558 0.36880475422367442 0.75462854607030749 1.4392008606810121
leaf_count=117 34 20 104 65 8 7 100
internal_value=0 -0.00765268 0.00286268 0.0176236 0.0355971 -0.027894 -0.0436338
internal_weight=0 6.95539 5.30979 3.86527 1.68361 1.44452 1.6456
internal_count=455 330 210 169 125 41 120
is_linear=0
shrinkage=0.1


Tree=137
num_leaves=1
num_cat=0
split_feature=
split_gain=
threshold=
decision_type=
left_child=
right_child=
leaf_value=0
leaf_weight=
leaf_count=
internal_value=
internal_weight=
internal_count=
is_linear=0
shrinkage=1


Tree=138
num_leaves=7
num_cat=0
split_feature=26 13 23 21 27 23
split_gain=0.28265 0.317997 0.266453 0.252476 0.169638 0.0972599
threshold=0.20695000000000002 40.300000000000004 953.70000000000016 25.830000000000002 0.13270000000000001 811.85000000000002
decision_type=2 2 2 2 2 2
left_child=1 -1 3 5 -5 -2
right_child=2 -3 -4 4 -6 -7
leaf_value=-0.054123620467687317 -0.047752736213405998 0.003475933659510043 0.051080030438708825 0 0.045962021324021773 0
leaf_weight=1.5363499643281104 0.88089417852461316 1.4435308650135992 1.166232780087739 1.3807903793640437 1.0918044713325796 0.74421247653663158
leaf_count=193 40 13 137 26 32 14
internal_value=0 -0.0246125 0.0128357 0 0.0196559 -0.0285935
internal_weight=0 2.97988 5.26393 4.0977 2.47259 1.62511
internal_count=455 206 249 112 58 54
is_linear=0
shrinkage=0.1


Tree=139
num_leaves=7
num_cat=0
split_feature=26 13 23 21 27 23
split_gain=0.28265 0.317997 0.266453 0.252476 0.169638 0.0972599
threshold=0.20695000000000002 40.300000000000004 953.70000000000016 25.830000000000002 0.13270000000000001 811.85000000000002
decision_type=2 2 2 2 2 2
left_child=1 -1 3 5 -5 -2
right_child=2 -3 -4 4 -6 -7
leaf_value=0.054123620467687317 0.047752736213405998 -0.003475933659510043 -0.051080030438708825 0 -0.045962021324021773 0
leaf_weight=1.5363499643281104 0.88089417852461316 1.4435308650135992 1.166232780087739 1.3807903793640437 1.0918044713325796 0.74421247653663158
leaf_count=193 40 13 137 26 32 14
internal_value=0 0.0246125 -0.0128357 0 -0.0196559 0.0285935
internal_weight=0 2.97988 5.26393 4.0977 2.47259 1.62511
internal_count=455 206 249 112 58 54
is_linear=0
shrinkage=0.1


Tree=140
num_leaves=1
num_cat=0
split_feature=
split_gain=
threshold=
decision_type=
left_child=
right_child=
leaf_value=0
leaf_weight=
leaf_count=
internal_value=
internal_weight=
internal_count=
is_linear=0
shrinkage=1


Tree=141
num_leaves=9
num_cat=0
split_feature=1 23 27 12 18 24 1 19
split_gain=0.25132 0.251778 0.241357 0.233666 0.196613 0.134641 0.0767762 0.0514196
threshold=20.255000000000006 653.45000000000016 0.17695000000000002 4.1240000000000006 0.012245000000000001 0.10905000000000002 21.395000000000003 0.0053320000000000008
decision_type=2 2 2 2 2 2 2 2
left_child=2 6 3 4 -1 -3 -2 -7
right_child=1 5 -4 -5 -6 7 -8 -9
leaf_value=0 0 0 0.033542838950496284 0.019755956549106991 -0.050154989937639206 0.051542193183705926 -0.038076640389128225 0
leaf_weight=0.74930726585444141 0.31720180250704322 0.47965199407190118 0.47944552265107621 0.50652945600450028 2.5582660894142464 1.7821237382013353 0.58029408636502922 0.37947745947167266
leaf_count=18 13 9 38 14 204 97 38 24
internal_value=0 0.0182911 -0.0167607 -0.0269315 -0.0376511 0.0346186 -0.0181999 0.0448552
internal_weight=0 3.53875 4.29355 3.8141 3.30757 2.64125 0.897496 2.1616
internal_count=455 181 274 236 222 130 51 121
is_linear=0
shrinkage=0.1


Tree=142
num_leaves=9
num_cat=0
split_feature=1 23 27 12 18 24 1 19
split_gain=0.25132 0.251778 0.241357 0.233666 0.196613 0.134641 0.0767762 0.0514196
threshold=20.255000000000006 653.45000000000016 0.17695000000000002 4.1240000000000006 0.012245000000000001 0.10905000000000002 21.395000000000003 0.0053320000000000008
decision_type=2 2 2 2 2 2 2 2
left_child=2 6 3 4 -1 -3 -2 -7
right_child=1 5 -4 -5 -6 7 -8 -9
leaf_value=0 0 0 -0.033542838950496284 -0.019755956549106991 0.050154989937639206 -0.051542193183705926 0.038076640389128225 0
leaf_weight=0.74930726585444141 0.31720180250704322 0.47965199407190118 0.47944552265107621 0.50652945600450028 2.5582660894142464 1.7821237382013353 0.58029408636502922 0.37947745947167266
leaf_count=18 13 9 38 14 204 97 38 24
